tree
version=v3
num_class=1
num_tree_per_iteration=1
label_index=0
max_feature_idx=7
objective=poisson
feature_names=community day_of_year day_of_week is_weekend week month area distance_to_center
feature_infos=-1:0:1:2:3:4:5:6:7:8:9:10:11:12:13:14:15:16:17:18:19:20:21:22:23:24:25:26:27:28:29:30:31:32:33:34:35:36:37:38:39:40:41:42:43:44:45:46:47:48:49:50:51:52:53:54:55:56:57:58:59:60:61:62:63:64:65:66:67:68:69:70:71:72:73:74:75:76 [225:281] -1:2:0:1:3:4:5:6 -1:0:1 [33:41] [8:10] [0.00017028325320793546:0.0037524989949877159] [0.0035856901258376137:0.28634120756201531]
tree_sizes=4701 6218 6334 6612 6702 6381 6777 6438 6821 6802 7942 7240 6860 6742 7061 6970 7812 7179 7203 7168 6589 7425 8010 7362 6180 6692 7907 7952 7701 7414 5742 7431 6912 7158 5943 7351 7795 7151 6833 7603 7210 7395 5435 7067 7486 7709 7533 7381 6614 5735 5994 6497 7229 6932 7020 7893 8400 7269 6839 7049 7726 6409 5766 5979 4723 7523 6059 4989 6870 6943 7013 4941 5467 5966 4875 7869 7128 5890 6687 5129 6314 4286 5107 5374 7910 7850 5796 4758 5699 4706 6004 6394 3416 6134 6287 5620 7397 5428 4837 4249 5600 5640 7137 5408 5363 3859 6020 7113 7343 6208 6488 5561 4936 5060 6845 5210 7425 4182 4568 7727 6789 5282 5367 5483 5117 5920 3936 5784 6801 4864 5990 5896 5899 3585 2593 6138 6127 4342 7050 5086 7549 4349 5869 5783 4094 6315 5642 5643 5394 7709 4777 6399 3723 5288 3890 5901 6746 6506 5070 3876 5775 5800 6356 3025 5884 5139 6180 5452 6626 6364 6277 6130 5123 3665 5180 6335 6289 5620 4756 5990 4078 4451 6954 6376 5449 7327 6759 6208 5822 5395 5568 6560 5432 4676 4545 6779 7396 5979 5797 5278 5476 6023 4981 5612 6788 7542 6359 4169 7615 6334 4965 4971 7188 4332 7896 5552 4958 6066 4615 6771 6714 4994 4315 6439 6252 6447 5466 5668 4987 5760 5588 4973 6120 3886 6203 5256 5230 6319 6771 6275 6044 5653 7061 7428 4220 4694 5996 7222 4878 6095 6472 6667 4647 6436 3599 7167 6474 5116 4756 4011 5784 8265 4714 5984 5100 7729 6220 5445 6365 5232 6745 5602 4309 5630 5308 6324 6245 6762 5693 5876 5881 4547 3903 4081 5782 4294 5199 5386 7090 5751 7031 4850 7733 4326 4881 6188 5072 6890 6123 4023 4726 5777 5782 5641 3577 4551 5197 7254 4612 4258 5795 6023 4621 5614 5095 4096 7077 5812 4429 6404 6993 5468 5099 6018 6039 4101 6402 7740 5863 4749 5635 6650 3963 6660 4413 5636 6039 5900 4995 5239 6573 5448 4897 6641 4533 5623 6559 6128 4655 6141 6665 4092 5107 4174 5241 6699 5805 6555 5294 4659 4991 5715 4004 5270 4257 4862 6689 5198 7107 7146 5281 4860 6158 4515 4775 5689 3972 5456 5997 3839 4132 6849 5981 4982 5123 4822 4192 7199 4720 5961 6377 3310 3551 5663 5875 4777 6018 6318 5977 6282 5986 4701 4802 4956 4790 4731 4469 6463 4087 3911 3784 5485 4565 6355 5293 4244 5890 3521 4277 5537 4867 2771 5729 6085 4072 4941 5031 6908 3828 2820 5157 4425 5504 5640 6012 5853 4535 5887 4240 5551 4366 4450 3995 5545 6007 7557 5412 5815 5607 5701 6757 5131 5775 4363 3700 3729 5529 6750 3695 4877 2908 5319 2794 6739 4074 5501 6529 5427 4996 6156 5096 5612 3994 4998 4787

Tree=0
num_leaves=46
num_cat=10
split_feature=0 0 0 7 7 7 1 0 1 1 0 1 1 7 1 1 7 2 1 0 1 1 0 1 1 1 1 7 1 1 1 2 1 1 1 1 1 1 1 0 7 7 1 7 7
split_gain=500447 88416.8 11891.8 9408.22 8200.75 3706.99 3197.61 1953.78 1939.06 2844.12 1880.2 1194.27 1136.64 697.599 443.937 450.123 413.252 283.391 263.208 253.303 240.634 229.334 175.966 86.2118 202.97 77.791 82.9357 77.4076 99.6313 72.6244 60.3068 54.3753 52.7501 34.5798 31.2394 20.4672 16.3108 13.1523 11.8043 5.88234 5.04267 3.32458 1.78966 1.39845 0.750014
threshold=0 1 2 0.069794312028717942 0.091567568236157262 0.055534769268901607 251.50000000000003 3 233.50000000000003 251.50000000000003 4 247.50000000000003 271.50000000000006 0.08453639680527926 271.50000000000006 233.50000000000003 0.10971958068366035 5 251.50000000000003 6 243.50000000000003 251.50000000000003 7 240.50000000000003 249.50000000000003 271.50000000000006 233.50000000000003 0.14005357113407574 251.50000000000003 238.50000000000003 256.50000000000006 8 251.50000000000003 226.50000000000003 233.50000000000003 270.50000000000006 230.50000000000003 251.50000000000003 279.50000000000006 9 0.14101481187244119 0.072469762704745241 227.50000000000003 0.081996996721632229 0.22549503068046833
decision_type=1 1 1 2 2 2 2 1 2 2 1 2 2 2 2 2 2 1 2 1 2 2 1 2 2 2 2 2 2 2 2 1 2 2 2 2 2 2 2 1 2 2 2 2 2
left_child=3 4 10 5 8 11 -7 22 -2 20 17 -1 13 -11 15 33 30 23 -5 36 -10 -17 31 -3 -25 26 -24 29 -29 -19 -6 35 -18 -12 -33 -4 42 -38 40 41 -16 -21 -9 -27 -41
right_child=1 2 7 18 16 6 -8 19 9 12 14 -13 -14 -15 38 21 32 27 -20 39 -22 -23 25 24 -26 43 -28 28 -30 -31 -32 34 -34 -35 -36 -37 37 -39 -40 44 -42 -43 -44 -45 -46
leaf_value=4.9479909312367649 4.6378941428247416 4.5625359796492653 4.5283358257963675 5.0921325089529592 4.616960219686546 4.9607438939196919 4.8391956327954002 4.5100936974982693 4.753855068397038 4.7172428695582118 4.5259762949683768 5.0231982548063101 4.6364445293845931 4.6700117506756902 4.529320620549143 4.5533410482313652 4.6023615246156391 4.541918352637107 5.0567208448278089 4.5113460933906984 4.7251307143664212 4.5437077778216706 4.5237508389203684 4.5951188204637585 4.570256045929046 4.521252893624693 4.5316057589192953 4.5727800918058206 4.556477771806021 4.5577234180204407 4.6336945149143158 4.5154835463919483 4.586946510017949 4.5351212829275047 4.5218413943148441 4.5202325680327853 4.5174283228898373 4.5149032173968511 4.5357327673044745 4.5077699200423842 4.5332056079642555 4.5090658121156082 4.5131805633840765 4.5234627145948343 4.5067382451308653
leaf_weight=3838.9862060546875 5758.4793090820312 5374.5806884765625 18043.235168457031 4030.9355163574219 5182.6313781738281 4414.8341369628906 4606.783447265625 5182.6313781738281 6526.2765502929688 6334.3272399902344 5566.5299987792969 5182.6313781738281 5182.6313781738281 6718.2258605957031 18235.184478759766 49330.972747802734 4222.8848266601562 4030.9355163574219 4990.6820678710938 9213.56689453125 5758.4793090820312 53745.806884765625 17467.387237548828 4798.7327575683594 11900.857238769531 5182.6313781738281 71405.143432617188 7102.1244812011719 8637.7189636230469 12092.806549072266 4030.9355163574219 9789.4148254394531 5182.6313781738281 19578.829650878906 48371.226196289062 4030.9355163574219 38581.811370849609 52210.21240234375 4798.7327575683594 37238.166198730469 4606.783447265625 46259.783782958984 4798.7327575683594 13820.350341796875 19002.981719970703
leaf_count=20 30 28 94 21 27 23 24 27 34 33 29 27 27 35 95 257 22 21 26 48 30 280 91 25 62 27 372 37 45 63 21 51 27 102 252 21 201 272 25 194 24 241 25 72 99
internal_value=4.55723 4.53996 4.52881 4.98732 4.66394 4.94495 4.89868 4.51851 4.6922 4.70245 4.54848 4.9912 4.67688 4.69294 4.5428 4.54533 4.60893 4.5649 5.07255 4.5118 4.7404 4.54832 4.52609 4.57378 4.5774 4.52879 4.53006 4.55874 4.56383 4.55378 4.62429 4.52245 4.59387 4.53309 4.52078 4.52687 4.51554 4.51598 4.53108 4.50843 4.5301 4.50945 4.51157 4.52286 4.50743
internal_weight=0 665296 610399 27064.9 54897.5 18043.2 9021.62 400598 36278.4 30519.9 209801 9021.62 18235.2 13052.6 155863 128222 18619.1 53937.8 9021.62 212488 12284.8 103077 188110 22074.2 16699.6 107876 88872.5 31863.6 15739.8 16123.7 9213.57 80234.8 9405.52 25145.4 58160.6 22074.2 100773 90792 27640.7 111714 22842 55473.4 9981.36 19003 56241.1
internal_count=3607 3466 3180 141 286 94 47 2087 189 159 1093 47 95 68 812 668 97 281 47 1107 64 537 980 115 87 562 463 166 82 84 48 418 49 131 303 115 525 473 144 582 119 289 52 99 293
cat_boundaries=0 3 6 9 12 14 15 17 20 21 23
cat_threshold=0 96 2048 2097152 164098 4 75549104 840762501 323 2953708551 1073747984 5816 288 302514304 112 135275080 2216714240 394245 4096 1664 96 1107361792 142606344
is_linear=0
shrinkage=1


Tree=1
num_leaves=58
num_cat=3
split_feature=7 6 3 7 6 6 6 7 7 6 6 6 6 3 6 6 6 7 6 7 6 6 4 6 4 7 6 7 6 6 7 7 6 6 4 6 4 7 4 6 3 7 4 4 4 4 6 4 7 4 7 4 4 4 4 6 6
split_gain=120030 206435 20199.4 12465.5 7890.94 7779.11 6699.97 12838.3 9557.92 6350.73 4702.18 3676.75 2132.89 1780.38 1597.21 1268.44 996.023 503.419 470.479 469.812 429.94 351.442 242.648 215.116 201.756 189.299 144.631 136.946 135.85 93.9684 87.1061 86.3809 83.4968 78.9626 60.2987 59.1007 49.5344 50.2552 41.1911 33.0724 30.8908 29.7129 12.905 12.0341 8.8377 7.95017 6.10609 4.05557 3.42883 4.01714 3.30979 3.01397 0.892382 0.826919 0.77957 0.638016 2.2364
threshold=0.071054322034831349 0.00087069735305113805 0 0.15777802610391869 0.00076842653354921642 0.0012583816586307576 0.0004401474176166439 0.094756573247695458 0.08453639680527926 0.0015313649486987902 0.00081090644312022174 0.00065573011405184727 0.00050943890797643554 1 0.0010108611501717293 0.0005692103190168519 0.00088764428800871436 0.17542703293779219 0.00028611807947137151 0.17079026106001655 0.00052890735395337996 0.00047750591215354484 39.500000000000007 0.0012583816586307576 36.500000000000007 0.050482708840769351 0.0013524894098699508 0.21550778393405964 0.0011490529353356269 0.00046506348854735295 0.14214185405720017 0.20810867257805368 0.00027885631114696064 0.00058995362248472386 36.500000000000007 0.00078664779282892232 39.500000000000007 0.075541841372066362 37.500000000000007 0.00058431661474314493 2 0.17604869223853573 36.500000000000007 37.500000000000007 36.500000000000007 36.500000000000007 0.0013586729775805168 36.500000000000007 0.22549503068046833 36.500000000000007 0.1069329523313475 37.500000000000007 36.500000000000007 36.500000000000007 36.500000000000007 0.0034023707472788925 0.0014139961097412446
decision_type=2 2 1 2 2 2 2 2 2 2 2 2 2 1 2 2 2 2 2 2 2 2 2 2 2 2 2 2 2 2 2 2 2 2 2 2 2 2 2 2 1 2 2 2 2 2 2 2 2 2 2 2 2 2 2 2 2
left_child=1 4 9 6 21 -4 18 8 26 16 24 15 38 -13 20 -10 -3 19 -2 28 -14 29 -16 -18 -6 52 45 31 35 32 36 33 -1 47 -28 -5 37 -20 -9 -27 -34 -35 -37 -41 -12 -8 -30 -19 49 -29 -38 -48 -23 -33 -21 56 -50
right_child=3 2 5 17 10 -7 7 12 11 -11 44 13 14 -15 22 -17 23 27 30 54 -22 25 -24 -25 -26 39 34 48 46 -31 -32 53 40 41 -36 42 50 -39 -40 43 -42 -43 -44 -45 -46 -47 51 -49 55 -51 -52 -53 -54 -55 -56 -57 -58
leaf_value=-0.046000808317445976 -0.049147178307479097 0.24456823496032737 0.39386131573217376 -0.038260013519945416 0.073419212743021628 0.25619405603936174 -0.025340509856536235 0.042490535260342806 0.063041734790566128 0.11052749791580996 -0.010632152650065493 0.081490122072005011 0.0022862434384352918 0.14846110211503499 0.0043561002664852461 0.0096127108505133715 0.21594583407314344 -0.030426059750754388 -0.019907612761620157 -0.0090779977755283629 -0.019891890060717503 -0.013732916688141965 -0.013265846375870733 0.19428737441155222 0.10225379175071225 -0.026261594523507809 -0.0013660070949005397 -0.04937046246698075 -0.045202044500249512 -0.049550906554950862 -0.040460289585560041 -0.03036104085247511 -0.036044726075287477 -0.049079261504246734 -0.018378681656250843 -0.024633415332304384 -0.033697439213812873 -0.029001394099554236 0.02861752771118637 -0.032338822619635568 -0.026061843313600008 -0.042670873393398298 -0.030423466936773679 -0.040012176385890226 -0.017300967351648919 -0.031483969393002395 -0.043261935903168409 -0.035083744896852835 -0.050535150803105104 -0.044476819123752016 -0.037736741212549267 -0.039093170524501432 -0.011491438055566211 -0.032758425660913304 -0.011121128338866618 -0.050514168260218886 -0.047890967397527934
leaf_weight=8433.6714172363281 17731.932540893555 10609.235778808594 9629.5850219726562 8285.2398986816406 4877.1293792724609 7679.5909423828125 4289.9641723632812 5208.7851867675781 9645.6572875976562 6848.2032318115234 3796.4971313476562 14935.800415039062 9638.6421356201172 5713.0926361083984 46094.587203979492 8883.2178497314453 10111.88623046875 3891.0064392089844 7659.1017761230469 4177.1622009277344 159638.10897827148 4178.9051818847656 9869.7781677246094 9211.2044525146484 5285.5648651123047 7454.6661834716797 4175.4530334472656 4024.30810546875 8283.1100463867188 9316.9963531494141 7732.0107879638672 3888.5921020507812 13697.436462402344 8403.5653381347656 4524.4633483886719 7838.8755798339844 5002.7599334716797 37490.005172729492 3954.774169921875 5377.9695434570312 4283.0707702636719 84768.166702270508 8585.0349426269531 3705.814453125 4717.7400665283203 4850.7617950439453 4051.8334503173828 4635.8111572265625 7482.4105377197266 3841.385009765625 4450.8153381347656 4231.8624267578125 4340.8312683105469 4637.6139984130859 4720.7536315917969 9307.3887176513672 9146.15478515625
leaf_count=46 97 33 31 45 22 31 23 26 47 31 20 69 50 26 240 46 34 21 41 22 848 22 52 34 24 40 22 22 45 51 42 21 74 46 24 42 27 201 20 29 23 461 46 20 25 26 22 25 41 21 24 23 23 25 25 51 50
internal_value=0 0.0882113 0.241919 -0.0192963 -0.0164107 0.332785 -0.00834852 -0.00116828 0.0422393 0.199154 0.0415754 0.0704208 -0.0117273 0.100022 -0.01369 0.0374295 0.219429 -0.0402382 -0.0344822 -0.0314353 -0.0186287 -0.0342272 0.00124732 0.205624 0.0884214 -0.0249604 -0.0196437 -0.0433044 -0.0360185 -0.0407245 -0.0303096 -0.0415593 -0.0376091 -0.0423877 -0.01022 -0.0312188 -0.0288712 -0.02746 0.0365094 -0.0313257 -0.0336699 -0.0432495 -0.0276634 -0.0354754 -0.0143339 -0.0286068 -0.0431738 -0.0329649 -0.0489934 -0.0469877 -0.0356051 -0.041139 -0.0125975 -0.0316716 -0.0101683 -0.0495995 -0.0490842
internal_weight=0 133556 54089.7 565690 79466.3 17309.2 371490 291423 57018.4 36780.5 18676.9 39177.8 234405 20648.9 225241 18528.9 29932.3 194200 80066.6 50173.9 169277 60789.4 55964.4 19323.1 10162.7 25058.2 17840.6 144026 41276 35731.2 62334.7 110225 26414.2 101699 8699.92 24709.2 54602.7 45149.1 9163.56 16538.5 17980.5 93171.7 16423.9 9083.78 8514.24 9140.73 16566.8 8526.82 33801.6 7865.69 9453.58 8283.7 8519.74 8526.21 8897.92 25936 16628.6
internal_count=3618 613 194 3005 419 62 1951 1519 283 132 91 188 1236 95 1190 93 101 1054 432 270 898 328 292 68 46 134 95 784 223 194 335 599 143 553 46 133 293 242 46 89 97 507 88 49 45 49 90 46 185 43 51 45 45 46 47 142 91
cat_boundaries=0 1 2 3
cat_threshold=1 1 1
is_linear=0
shrinkage=0.102


Tree=2
num_leaves=59
num_cat=23
split_feature=0 0 0 2 3 6 6 0 0 6 6 6 6 2 0 2 5 6 0 5 5 6 0 0 6 2 7 2 5 5 0 5 0 5 6 3 7 5 0 0 6 3 7 0 5 6 6 5 0 7 6 6 7 6 7 5 6 6
split_gain=237350 21218.5 12962.1 7829.35 5336.55 4944.14 2504.43 2470.2 2097.42 907.689 585.894 371.462 438.418 331.452 319.825 314.62 270.75 265.362 218.242 167.88 86.2338 85.2487 72.7555 71.9626 56.3638 55.2995 50.8356 38.4253 36.0902 33.8978 33.0182 28.2438 25.3455 22.1049 18.8045 17.4511 18.9093 14.84 12.6611 10.5326 8.69571 6.54415 6.41127 4.1379 4.36462 4.10057 3.91793 2.71297 2.54051 2.09919 1.5817 1.49457 1.04454 0.999253 0.804782 0.53357 0.178705 0.129003
threshold=0 1 2 3 4 0.0012583816586307576 0.0010034906596528062 5 6 0.00076842653354921642 0.00050943890797643554 0.0012583816586307576 0.0015313649486987902 7 8 9 9.5000000000000018 0.00088764428800871436 10 8.5000000000000018 9.5000000000000018 0.0010783216174953443 11 12 0.00065573011405184727 13 0.15683495359065849 14 9.5000000000000018 9.5000000000000018 15 8.5000000000000018 16 8.5000000000000018 0.00082211744896183985 17 0.14619345266778697 8.5000000000000018 18 19 0.00017057048065452157 20 0.12426367324520728 21 9.5000000000000018 0.00091355248041441082 0.0006048348615503693 8.5000000000000018 22 0.15105473020201635 0.00082211744896183985 0.00057858419761979611 0.14214185405720017 0.0010783216174953443 0.22549503068046833 8.5000000000000018 0.00082788354700609327 0.0006356968376467658
decision_type=1 1 1 1 1 2 2 1 1 2 2 2 2 1 1 1 2 2 1 2 2 2 1 1 2 1 2 1 2 2 1 2 1 2 2 1 2 2 1 1 2 1 2 1 2 2 2 2 1 2 2 2 2 2 2 2 2 2
left_child=1 4 8 5 17 9 19 18 10 -3 -2 -8 -13 35 40 23 22 -1 20 -5 27 47 33 31 -21 32 -23 37 38 39 41 56 51 -17 -29 53 -37 -4 -27 -25 -9 52 -34 44 -32 -43 -24 -15 54 -33 -22 -20 -16 -12 -42 -45 -10 -50
right_child=2 3 7 6 -6 -7 11 14 15 -11 13 12 -14 21 30 16 -18 -19 25 24 50 26 46 29 -26 28 -28 34 -30 -31 43 49 42 -35 -36 36 -38 -39 -40 -41 48 45 -44 55 -46 -47 -48 -49 57 -51 -52 -53 -54 -55 -56 -57 -58 -59
leaf_value=0.17851867564108342 0.033812412087673958 0.085657236732211872 -0.022942030089312899 0.034078267571320285 0.24720916309980798 0.19422776487383731 0.077382333903755887 -0.045262656924582353 -0.02780743916753594 0.13087272416876566 0.012102679452322102 0.12088558855508645 0.085317592943605719 -0.006868125369536 -0.037626712246182574 -0.011153354084418379 -0.025287780825120842 0.15845096955277241 -0.029374947744498083 0.044746406330754274 -0.034248210736057057 0.0091752646891937375 0.0029191854718441683 -0.012208533833076438 0.058885402573539705 -0.029408212731163504 -0.0028211631968931461 -0.028399242291216837 -0.035642169196533173 -0.022607447667037341 -0.042964817148370839 -0.018363204514016847 -0.036344869399973917 -0.0045568064815028177 -0.023322781488973633 0.014435342551396302 0.021875791819652497 -0.018794513256670347 -0.025519851942206413 -0.015484172487852452 -0.049354050710445331 -0.037734026594331824 -0.033672089688973013 -0.041858116325709231 -0.047012962887959552 -0.033784643932912709 -0.00010984247706567894 -0.0042061951865613907 -0.048656045094795777 -0.021292366784517115 -0.031480491039364407 -0.031555610578555694 -0.039459145162789915 0.0098344905629750706 -0.050490192757454061 -0.040719910783909581 -0.026190769103550525 -0.047655183596975563
leaf_weight=13952.684265136719 9091.4574890136719 8923.8162689208984 15922.458648681641 6871.9712066650391 13322.850982666016 11511.034149169922 6804.6585845947266 8054.50341796875 3735.2092895507812 9601.5723724365234 5032.9219818115234 8743.6025695800781 6162.9789581298828 5878.9648742675781 5384.2738952636719 9920.3668518066406 6794.4581909179688 13660.532897949219 14480.409393310547 4608.7486877441406 4660.8434143066406 10630.923614501953 6166.0710906982422 21737.54753112793 8301.9895782470703 18103.626998901367 5607.5911560058594 13442.114379882812 6296.538818359375 5152.1462097167969 22750.978073120117 9927.3777618408203 14640.705871582031 11401.698638916016 18040.306747436523 12214.933441162109 5079.0105285644531 21290.457290649414 21823.276763916016 21106.428619384766 32742.324737548828 9242.8482360839844 30381.735916137695 12348.103927612305 3547.4129638671875 4435.9902191162109 15780.862030029297 13153.782852172852 8359.213623046875 3893.007080078125 6020.3862609863281 5483.2216339111328 29176.368240356445 4110.3579864501953 16136.078582763672 21531.680206298828 3746.8768615722656 33751.867950439453
leaf_count=34 44 38 87 30 29 37 29 46 20 39 26 27 25 31 30 53 37 37 80 21 26 55 33 117 35 100 29 74 35 28 128 53 82 61 98 63 26 116 120 113 188 52 168 70 20 25 84 69 48 21 33 30 165 21 93 122 20 193
internal_value=0 0.135538 -0.0261801 0.101982 0.194133 0.141676 0.0732196 -0.0366458 -0.00427213 0.109095 0.00963568 0.0971597 0.106184 0.0060744 -0.0443507 -0.0125222 -0.00635593 0.168593 -0.0282565 0.0469798 -0.0241522 -0.000397926 -0.00338326 -0.0169745 0.0538425 -0.0311829 0.00502912 -0.0228269 -0.0284298 -0.0147703 -0.0404952 -0.0219289 -0.0331356 -0.00762499 -0.025484 0.0147062 0.0166238 -0.0205651 -0.0272981 -0.01383 -0.0485659 -0.0383978 -0.0345348 -0.0421689 -0.0434965 -0.0364574 0.000738281 -0.00503138 -0.0488631 -0.0191924 -0.0326935 -0.0299617 -0.0391753 0.0110892 -0.0497201 -0.0411243 -0.0270053 -0.0478438
internal_weight=0 112466 588210 71530.4 40936.1 30036.4 41493.9 398048 190162 18525.4 70799.9 21711.2 14906.6 61708.5 207462 119362 50063.5 27613.2 190586 19782.7 79376.6 35271.3 43269 69298.6 12910.7 111210 16238.5 68695.3 46223.4 47996.1 108418 21302.5 64986.1 21322.1 31482.4 26437.2 17293.9 37212.9 39926.9 42844 99044 48239.5 45022.4 60178.2 26298.4 13678.8 21946.9 19032.7 90989.5 13820.4 10681.2 19963.6 34560.6 9143.28 48878.4 33879.8 7482.09 42111.1
internal_count=3614 381 3233 281 100 114 167 2229 1004 77 364 81 52 320 1180 640 268 71 1049 86 434 184 231 372 56 615 84 375 255 258 612 114 360 114 172 136 89 203 220 230 568 272 250 340 148 77 117 100 522 74 59 110 195 47 281 192 40 241
cat_boundaries=0 3 5 8 9 10 13 15 16 18 19 22 25 28 29 30 33 36 37 40 42 43 45 47
cat_threshold=0 164194 2052 0 96 69257648 840762501 257 112 1 2961835015 1073747984 5754 2097440 302514305 112 1128337408 163578376 15 813694976 1073743888 98 34832 1049604 256 16 66560 256 15 120 270912 8192 128 2148007936 0 4112 1 132101 0 1536 67127424 536870912 1 135266304 2097152 20975616 20972032
is_linear=0
shrinkage=0.102


Tree=3
num_leaves=62
num_cat=3
split_feature=7 6 7 6 6 7 7 6 3 6 6 6 6 1 1 6 3 7 7 6 6 6 1 1 1 7 7 6 7 6 6 7 6 6 6 1 1 1 6 1 1 7 1 1 3 1 6 1 1 1 1 1 1 1 6 6 1 1 7 1 1
split_gain=73355.4 90130.4 11601.5 6997.61 5884.99 9317.65 5988.08 4877.12 4276.22 3610.15 2724.66 1710.61 1389.96 894.65 1230.81 670.36 646.423 581.175 537.697 448.896 412.196 342.767 339.553 267.818 197.472 154.341 143.865 135.955 128.561 122.933 101.122 91.5875 83.6056 78.237 66.451 59.3499 57.9898 37.3164 34.6229 33.9135 40.7553 32.7319 32.0259 16.8379 13.3068 11.8079 9.25439 8.86877 5.45118 5.19215 2.59617 2.59376 2.55724 1.70087 1.54917 3.32798 1.43992 1.34656 1.28543 0.256247 0.142562
threshold=0.071054322034831349 0.00087069735305113805 0.15777802610391869 0.00076842653354921642 0.0004401474176166439 0.094756573247695458 0.08453639680527926 0.0015313649486987902 0 0.00081090644312022174 0.00065573011405184727 0.00050943890797643554 0.0010108611501717293 271.50000000000006 245.50000000000003 0.0005692103190168519 1 0.17542703293779219 0.17079026106001655 0.00028611807947137151 0.00052890735395337996 0.00047750591215354484 251.50000000000003 246.50000000000003 271.50000000000006 0.21550778393405964 0.050482708840769351 0.0011490529353356269 0.20810867257805368 0.0013524894098699508 0.00058995362248472386 0.14214185405720017 0.00046506348854735295 0.00027885631114696064 0.00078664779282892232 249.50000000000003 251.50000000000003 236.50000000000003 0.00058431661474314493 271.50000000000006 238.50000000000003 0.20766038694826075 258.50000000000006 251.50000000000003 2 249.50000000000003 0.0013586729775805168 251.50000000000003 258.50000000000006 251.50000000000003 245.50000000000003 256.50000000000006 250.50000000000003 249.50000000000003 0.0034023707472788925 0.00096294518722591412 251.50000000000003 252.50000000000003 0.1069329523313475 256.50000000000006 251.50000000000003
decision_type=2 2 2 2 2 2 2 2 1 2 2 2 2 2 2 2 1 2 2 2 2 2 2 2 2 2 2 2 2 2 2 2 2 2 2 2 2 2 2 2 2 2 2 2 1 2 2 2 2 2 2 2 2 2 2 2 2 2 2 2 2
left_child=1 3 4 21 19 6 29 8 13 23 15 36 20 14 -3 -8 -12 18 27 -2 -13 32 -9 -5 -14 28 45 34 30 52 47 39 33 59 50 -31 -7 -35 49 40 -21 -32 -16 -40 -36 -23 -29 -19 -20 -28 -4 -48 -6 -33 55 -27 -11 -57 -41 -1 -30
right_child=2 7 17 9 5 11 10 22 -10 56 16 12 24 -15 42 -17 -18 25 48 31 -22 26 -24 -25 -26 54 38 46 60 35 41 53 -34 37 44 -37 -38 -39 43 58 -42 -43 -44 -45 -46 -47 51 -49 -50 -51 -52 -53 -54 -55 -56 57 -58 -59 -60 -61 -62
leaf_value=-0.046591183955135382 -0.049006796834183186 0.12029535512885614 -0.040257068340986614 0.052009044986453701 -0.023909812385670016 0.036932768576203957 0.043026162286077217 0.10206020431398236 0.1914438491802713 -0.014174708706407304 0.066317801299470444 0.0036064469403834904 0.0037444072882652328 0.10612010129590002 0.1553199375155401 0.0055134999002841882 0.1028461184325795 -0.02728037895323189 -0.0097569215368850763 -0.031740630935447232 -0.01894390801487213 -0.01912562927465308 0.070100192660323801 0.082267840831138875 -0.013075955163952338 -0.050409935897992073 -0.02313043974736164 -0.044640089050806644 -0.028151377226176028 0.00067773309530267918 -0.042399306411139023 -0.037872789988446773 -0.049334832185283312 -0.042456176149751917 -0.028574201160649678 -0.016081961878540777 0.021712838635623968 -0.030717519235795295 -0.030058793163155507 -0.032662284955250025 -0.024718477290672291 -0.049108716148010871 0.16411638015629296 -0.03946602353607314 -0.022266474741528083 -0.011721871533057645 -0.041621887870573089 -0.034221703045321537 -0.0046664670414629395 -0.028250911455305377 -0.03629177101056328 -0.037561320486758858 -0.027691653149693018 -0.041132966306464624 -0.050531195941874441 -0.048873478063669561 -0.016994144812658769 -0.046619039942780056 -0.035671869758764539 -0.044596831876498877 -0.029644107605102648
leaf_weight=4183.7299346923828 15908.5869140625 15152.257934570312 3410.4234161376953 5171.9467163085938 3892.6233825683594 5201.583251953125 11364.690155029297 6585.3667297363281 19634.602355957031 3681.4465179443359 15996.767135620117 8922.8607788085938 46217.275100708008 9406.4104309082031 9125.0325317382812 8796.0497131347656 7372.9769897460938 3668.4316558837891 5224.2390441894531 12311.313003540039 152417.29719543457 3693.3906860351562 7325.6815490722656 7444.7135314941406 8614.6552886962891 8248.0812072753906 4256.7852783203125 8594.7139587402344 4005.3690185546875 3945.4146881103516 78962.783767700195 4083.1415405273438 7943.15625 3641.0233306884766 12522.980255126953 4946.7571868896484 5273.6866760253906 13004.702346801758 3816.6587829589844 3643.2587585449219 29198.148178100586 8497.8679962158203 9026.2756958007812 4309.0904235839844 4964.4875946044922 5896.6633148193359 3892.0072174072266 4336.7077789306641 3865.1559295654297 4428.4198455810547 4770.0860443115234 3736.6453247070312 4391.6328125 4249.3157043457031 8083.289306640625 7144.2729187011719 4929.2972869873047 8158.4101715087891 3973.482666015625 3681.6823425292969 4518.180419921875
leaf_count=25 96 35 20 20 22 24 49 22 37 20 63 46 239 22 21 45 26 21 28 70 842 20 25 28 46 50 24 51 23 21 468 24 48 21 71 27 25 75 22 21 165 51 21 25 28 32 23 25 21 25 28 22 25 25 49 43 27 49 23 22 26
internal_value=0 0.0604857 -0.0187358 -0.0150872 -0.00805474 -0.00147145 0.0340179 0.139852 0.152038 0.0351169 0.0541413 -0.0109774 -0.0129283 0.133921 0.141772 0.0266623 0.0778446 -0.039383 -0.0300948 -0.0338384 -0.0176964 -0.0331953 0.0852338 0.0698683 0.00110073 -0.042874 -0.0245594 -0.0349747 -0.0409729 -0.0169779 -0.0420459 -0.0296378 -0.0402187 -0.0372623 -0.0303473 -0.00863946 0.0292758 -0.0332886 -0.0302495 -0.0279568 -0.0268025 -0.0430518 0.159697 -0.0350544 -0.0267867 -0.0145791 -0.0422925 -0.0310478 -0.00759844 -0.0257477 -0.0379517 -0.0396403 -0.0259214 -0.0395421 -0.0491216 -0.0486354 -0.0157952 -0.0476752 -0.0342397 -0.0456648 -0.0289492
internal_weight=0 156338 547326 80082.7 360722 287354 60706.9 76255.6 62344.6 21227.4 43530.5 226647 216172 42710 33303.6 20160.7 23369.7 186604 50980.7 73367.2 161340 58855.3 13911 12616.7 54831.9 135623 26401 41891.3 103989 17176.4 95465.8 57458.7 32454.3 24511.1 25668 8892.17 10475.3 16645.7 16811 49126.2 41509.5 87460.7 18151.3 8125.75 17487.5 9590.05 16223.4 8005.14 9089.39 8685.21 8180.51 7628.65 8284.26 8332.46 31634.1 23550.8 8610.74 15302.7 7616.74 7865.41 8523.55
internal_count=3638 617 3021 434 1924 1500 278 183 136 95 183 1222 1173 99 77 94 89 1097 292 424 888 339 47 48 285 805 148 243 614 95 565 328 191 143 147 48 49 96 96 279 235 519 42 47 99 52 96 46 49 49 48 45 47 49 191 142 47 92 44 47 49
cat_boundaries=0 1 2 3
cat_threshold=1 1 1
is_linear=0
shrinkage=0.102


Tree=4
num_leaves=63
num_cat=3
split_feature=7 7 7 7 7 7 7 7 7 7 7 7 7 1 1 1 7 7 7 1 7 3 7 7 7 7 7 1 7 1 7 7 7 7 7 7 7 7 7 7 7 1 3 3 7 7 7 1 7 7 7 1 1 1 1 1 1 7 1 1 7 7
split_gain=69242.6 16941.5 11747.6 9427.72 13815.6 7271.96 16608.4 4530.86 6157.54 4363.56 9710.97 2388.74 3540.19 1868.22 1321.29 631.541 560.014 1098.91 530.88 528.861 501.141 499.634 492.913 452.875 452.124 306.428 582.716 224.23 189.906 175.958 164.784 160.864 137.055 189.417 124.081 103.365 101.727 92.3667 72.1877 69.7614 87.3259 39.5646 39.0487 28.1091 27.2024 40.0889 55.749 25.4548 20.1289 25.4088 15.0258 13.5521 8.60223 8.52777 6.58323 4.83301 3.97763 2.06349 2.25526 1.06661 0.548433 2.1178
threshold=0.071054322034831349 0.069794312028717942 0.15777802610391869 0.05900767473225773 0.047762129895975329 0.050482708840769351 0.055534769268901607 0.041143820320868905 0.012020784282030435 0.094756573247695458 0.08453639680527926 0.087956230408063399 0.08987537139506574 246.50000000000003 233.50000000000003 271.50000000000006 0.11391119470394251 0.10971958068366035 0.10559429526650477 251.50000000000003 0.17542703293779219 0 0.11280648286959684 0.089619689439008374 0.17079026106001655 0.15683495359065849 0.15433141287648844 251.50000000000003 0.079487051257151789 252.50000000000003 0.065251696519503355 0.21550778393405964 0.072469762704745241 0.075541841372066362 0.053420503038070992 0.17944143312160724 0.15907164613412897 0.081996996721632229 0.16568280170032548 0.19475943092164283 0.20810867257805368 249.50000000000003 1 2 0.14214185405720017 0.1353495268000717 0.11391119470394251 251.50000000000003 0.17604869223853573 0.17671535846105393 0.16278425837350072 245.50000000000003 250.50000000000003 251.50000000000003 251.50000000000003 251.50000000000003 255.50000000000003 0.22549503068046833 251.50000000000003 275.50000000000006 0.26026053229410689 0.23127266977874045
decision_type=2 2 2 2 2 2 2 2 2 2 2 2 2 2 2 2 2 2 2 2 2 1 2 2 2 2 2 2 2 2 2 2 2 2 2 2 2 2 2 2 2 2 1 1 2 2 2 2 2 2 2 2 2 2 2 2 2 2 2 2 2 2
left_child=1 3 9 4 7 29 34 8 -1 10 28 27 23 -3 -10 16 17 18 -11 -8 24 -14 -19 -13 36 26 -18 -12 32 -6 -5 35 47 -34 -7 48 55 41 50 43 -41 -30 51 -37 45 46 -17 -2 -22 -50 -38 -9 -39 -32 -40 -4 -26 58 -33 -46 61 -59
right_child=2 13 20 30 5 6 19 42 14 15 11 12 21 -15 -16 44 25 22 -20 -21 31 -23 -24 -25 56 -27 -28 -29 37 -31 53 57 33 -35 -36 39 38 52 54 40 -42 -43 -44 -45 59 -47 -48 -49 49 -51 -52 -53 -54 -55 -56 -57 -58 60 -60 -61 -62 -63
leaf_value=-0.049217180683118929 -0.015371209419378872 0.094943823715369802 -0.021759054732718778 -0.045618424878939634 0.13328522094710657 -0.033684686787889662 0.13238879260156883 -0.039372580315212111 0.0050968443375195892 -0.0049464248334033512 0.089335142187543973 0.0057204443031096371 0.043360466459988735 0.14627687147108534 0.060359158676023948 -0.021752703224989917 -0.015249707325707981 0.033559155697855607 -0.025814988409790872 0.098725188192059832 -0.048927317680105893 0.076107558288757593 0.0023816585494881555 -0.028193666555914727 -0.010123518586909389 0.0042901795758627966 -0.049594492494451164 0.063276776281373417 -0.0028867411526161137 0.11679158512946648 -0.020986607801224223 -0.049292745500047343 -0.048351244851161775 -0.026108823323038387 -0.015459190106380378 -0.034925829640458504 -0.038536039700646715 -0.021807231272528864 -0.025819271682495565 -0.041960066924095783 -0.030188268846082444 -0.016366496299507826 -0.02301501933493473 -0.025758735204874005 -0.028570854184226877 -0.017200348892662056 -0.031057731024470046 -0.026490601874443472 -0.038242179791805032 -0.045070211835330533 -0.044369988014933123 -0.031886714473294706 -0.028648246396486658 -0.027366572144608487 -0.031859962633833339 -0.026926386278526598 -0.0055361354747810775 -0.050436657689773741 -0.045404920305199256 -0.031213255282149181 -0.050522303543587659 -0.047649942032765867
leaf_weight=7718.3074951171875 4335.3732757568359 12251.199890136719 3984.1313323974609 6394.6628723144531 12254.4287109375 6850.5928039550781 10650.484313964844 3984.0077209472656 5341.5546417236328 35661.399230957031 7004.0146179199219 9824.0700531005859 17209.132904052734 18570.966186523438 28693.606430053711 16498.983978271484 126269.89741516113 8622.1886291503906 19690.372268676758 8962.5370788574219 8727.8166961669922 6758.826904296875 13604.491744995117 7024.1277008056641 4433.4111785888672 7692.3451385498047 5359.4808654785156 6792.1376647949219 4131.1475830078125 15179.969207763672 4506.175048828125 3794.1683349609375 7739.3741455078125 8243.6174163818359 9024.1387023925781 12768.26481628418 14880.748260498047 3803.3667907714844 3781.1886749267578 38639.470993041992 7943.0521392822266 5047.3113098144531 4257.4611663818359 4866.0374450683594 3457.8428649902344 7676.5237579345703 11372.074966430664 4308.41748046875 7804.8220367431641 22195.530242919922 6926.1529693603516 7362.8669281005859 4100.4514465332031 4479.2578582763672 4095.6349334716797 3957.6334686279297 3675.1417694091797 6901.490234375 3821.0280303955078 5182.0036010742188 7528.143310546875 7290.4271240234375
leaf_count=49 25 20 23 40 23 41 22 24 22 193 24 50 68 30 106 92 703 39 113 21 55 24 74 41 24 39 34 24 22 27 26 24 49 48 50 77 91 22 22 239 47 28 25 29 20 42 66 25 48 138 43 44 24 26 24 23 20 44 24 30 48 46
internal_value=0 0.0576106 -0.0177065 0.0421005 0.0517159 0.0847214 0.0542303 0.0155076 0.0330338 -0.0070435 0.0115116 0.0398154 0.027411 0.125875 0.0516878 -0.0138891 -0.0116244 -0.00467775 -0.012371 0.117008 -0.0391149 0.0525973 0.0144786 -0.00841525 -0.0299066 -0.015492 -0.0166485 0.0765101 -0.0255472 0.124161 -0.0330933 -0.0422981 -0.0312822 -0.0368827 -0.0233278 -0.0403962 -0.0346151 -0.0172759 -0.0373619 -0.0378803 -0.039954 -0.0103055 -0.0313846 -0.0323994 -0.0250047 -0.0237496 -0.0255514 -0.0209201 -0.0445663 -0.0432957 -0.0403915 -0.03452 -0.0253634 -0.0241733 -0.0289673 -0.0243412 -0.00805124 -0.0489704 -0.0473493 -0.0301622 -0.0495361 -0.0490091
internal_weight=0 166482 535423 135660 120280 62922.2 35487.8 57357.8 41753.5 357409 96321.4 54612.3 40816.2 30822.2 34035.2 261088 216900 77578.5 55351.8 19613 178014 23968 22226.7 16848.2 45734 139322 131629 13796.2 41709.1 27434.4 15380.1 132280 24626.8 15983 15874.7 102945 37625.5 17082.3 29683.7 64216.8 46582.5 9178.46 15604.3 17634.3 44187.4 35547.6 27871.1 8643.79 38728.2 30000.4 21806.9 11346.9 7903.82 8985.43 7876.82 7941.76 8108.55 29335.3 7615.2 8639.85 21720.1 14191.9
internal_count=3604 596 3008 546 454 184 134 270 177 1919 474 231 183 50 128 1445 1195 419 306 43 1089 92 113 91 270 776 737 48 243 50 92 819 147 97 91 633 226 96 180 392 286 50 93 106 250 200 158 50 241 186 134 68 46 52 46 46 44 186 48 50 138 90
cat_boundaries=0 1 2 3
cat_threshold=1 1 1
is_linear=0
shrinkage=0.102


Tree=5
num_leaves=60
num_cat=18
split_feature=0 0 6 2 0 0 4 6 3 4 4 4 4 4 6 2 6 2 0 0 6 4 0 0 4 4 4 4 3 4 6 2 4 4 6 4 0 6 4 6 4 3 4 4 3 6 6 6 6 0 4 4 6 6 6 6 4 6 6
split_gain=125448 10836.6 8663.05 3942.91 1833.3 1722.61 1230.15 1884.32 688.017 620.544 378.94 354.427 408.632 351.387 325.085 312.05 274.373 247.693 243.98 242.101 239.341 176.901 147.88 104.142 102.911 73.2715 66.976 56.0252 55.8721 46.0335 43.2382 40.2035 36.3408 49.2746 34.4584 27.6014 26.0278 23.7685 22.7027 22.0751 20.9395 19.0002 13.8748 11.1865 9.85977 6.98786 15.1905 8.59779 6.23357 3.43528 2.35121 3.13513 2.27933 1.70239 1.22722 1.01431 0.452481 0.33911 0.273728
threshold=0 1 0.00087069735305113805 2 3 4 34.500000000000007 0.0010034906596528062 5 39.500000000000007 37.500000000000007 39.500000000000007 33.500000000000007 34.500000000000007 0.0010034906596528062 6 0.00065573011405184727 7 8 9 0.00065573011405184727 39.500000000000007 10 11 34.500000000000007 37.500000000000007 39.500000000000007 34.500000000000007 12 36.500000000000007 0.00076842653354921642 13 34.500000000000007 36.500000000000007 0.0010108611501717293 36.500000000000007 14 0.00048856779676830148 37.500000000000007 0.00052890735395337996 39.500000000000007 15 33.500000000000007 33.500000000000007 16 0.00098836800606626565 0.00082788354700609327 0.0006048348615503693 0.00082788354700609327 17 39.500000000000007 35.500000000000007 0.00057858419761979611 0.00041171396796098667 0.001287392268194973 0.00090059021248227304 38.500000000000007 0.0034023707472788925 0.00046506348854735295
decision_type=1 1 2 1 1 1 2 2 1 2 2 2 2 2 2 1 2 1 1 1 2 2 1 1 2 2 2 2 1 2 2 1 2 2 2 2 1 2 2 2 2 1 2 2 1 2 2 2 2 1 2 2 2 2 2 2 2 2 2
left_child=2 4 8 6 17 22 -4 -8 13 14 -9 12 28 -1 -5 19 -10 34 36 -14 37 24 32 -17 -19 -26 27 42 48 -16 -22 -29 39 41 38 -36 50 -15 -2 -3 -35 -34 -24 -38 -45 46 47 -13 -6 -20 51 -7 53 -28 -47 -48 -37 58 -51
right_child=1 5 3 9 11 18 7 10 16 -11 -12 45 15 20 29 23 -18 21 49 -21 30 -23 26 -25 25 -27 52 31 -30 -31 -32 -33 33 40 35 56 43 -39 -40 -41 -42 -43 -44 44 -46 54 55 -49 -50 57 -52 -53 -54 -55 -56 -57 -58 -59 -60
leaf_value=0.0132915231585566 -0.0091117845038853635 -0.042288805323983471 0.089431579770742967 0.088973414944769527 -0.028608910821926223 -0.04495415210710068 0.144937325645977 0.11397271226161886 0.046425466112084694 0.055555284887306294 0.083390150626894241 -0.026728855172333119 -0.013577660041687464 0.033047609289864908 0.075628512707481846 -0.020493008734557769 0.075441596827325902 0.0049307283892259428 -0.047417326427687055 0.00081835163011910299 0.052960800921703702 -0.0054463226765425901 -0.033416691344337814 -0.011751788852786724 0.022980991852173387 0.011137172084627481 -0.033975665019748087 -0.02055011358914835 -0.019641660796924448 0.065988492784151295 0.042371274253445675 -0.026299219398667431 -0.029210962408999917 -0.032282365098547323 0.0076984873553506729 -0.00057763714528970647 -0.043894577299847658 0.024247861659692917 0 -0.033868718541704528 -0.037745186966253112 -0.020913541595948625 -0.02776468387484993 -0.039895065319653249 -0.036784059114039286 -0.020251974836740429 -0.029937590189759437 -0.020772302289822946 -0.034171860150656 -0.049922477409779738 -0.046275115679828789 -0.042091063689831516 -0.035443885848821736 -0.030999345826568617 -0.022876395828894114 -0.027353454360113483 -0.0021098822171434412 -0.050532339573787728 -0.048939220816782453
leaf_weight=6564.8222198486328 6388.0267639160156 6422.1885986328125 15318.172882080078 23983.549865722656 3510.0865631103516 7851.1133117675781 20097.34375 8471.3432006835938 6513.8273162841797 13069.403076171875 8437.065673828125 3895.1092376708984 18177.189834594727 7291.7195892333984 12953.889282226562 19892.076919555664 7106.7687072753906 7779.8668365478516 37502.856323242188 36621.212280273438 8153.5517272949219 5075.8141326904297 7862.6068115234375 50217.944366455078 14396.185363769531 8768.0494995117188 4217.6748046875 24494.176559448242 6205.3482208251953 8800.327392578125 8083.9158020019531 28013.124374389648 10944.403472900391 22752.596572875977 6019.3790283203125 4028.2351379394531 5668.994384765625 5816.9618682861328 5112.0605010986328 6785.9271545410156 11029.011703491211 3973.7529296875 11228.81608581543 40599.875 15185.285034179688 4115.4350433349609 3750.0088348388672 7757.8567962646484 5982.3453674316406 13924.569732666016 3998.1173095703125 10944.523941040039 3806.6017608642578 5613.4797821044922 4757.6830596923828 4568.6741790771484 4260.4522247314453 7306.3616180419922 22964.399551391602
leaf_count=26 34 40 27 40 20 51 27 19 26 29 22 22 104 29 35 113 22 40 247 199 29 27 47 280 73 45 26 145 35 25 27 167 67 139 31 21 36 26 27 41 68 24 67 257 96 24 22 45 34 93 26 71 23 34 27 27 23 49 152
internal_value=0 -0.0250512 0.0775191 0.0933368 -0.00830558 -0.0374202 0.113732 0.12382 0.0420442 0.0751574 0.0987157 -0.0137911 -0.0116783 0.034637 0.0807738 -0.00972825 0.0615692 0.00672743 -0.0445494 -0.00395753 0.0394101 0.0121916 -0.0293772 -0.0142353 0.0150905 0.0185003 -0.0266008 -0.0253528 -0.0271913 0.0717314 0.0476922 -0.0236273 -0.033194 -0.0319051 -0.00089839 0.00244002 -0.0406615 0.029147 -0.0050576 -0.0379671 -0.0340675 -0.0270045 -0.0300953 -0.0394907 -0.0390492 -0.0240931 -0.0251689 -0.0227681 -0.0321207 -0.0485526 -0.0437968 -0.04329 -0.0331686 -0.0322819 -0.0216655 -0.0285251 -0.00137199 -0.0495037 -0.0493119
internal_weight=0 544369 160663 111131 231279 313090 52323.9 37005.8 49531.6 58807.2 16908.4 169451 140606 35911 45737.8 124908 13620.6 61828.1 165946 54798.4 29346.1 36019.9 147144 70110 30944.1 23164.2 85236.5 71598.7 15697.8 21754.2 16237.5 52507.3 61907.9 48699.8 25808.2 14308.1 84247.9 13108.7 11500.1 13208.1 33781.6 14918.2 19091.4 61454.2 55785.2 28844.8 19971.6 11653 9492.43 81698.2 22793.8 18795.6 13637.8 9831.15 8873.12 8318.68 8288.69 44195.3 36889
internal_count=3648 3239 409 224 1273 1966 95 68 185 129 41 952 785 137 100 696 48 321 1078 303 111 185 888 393 158 118 509 426 89 60 56 312 379 298 136 75 537 55 61 81 207 91 114 389 353 167 116 67 54 541 148 122 83 60 51 49 44 294 245
cat_boundaries=0 3 6 7 9 12 13 14 15 17 20 23 26 27 28 30 31 32 34
cat_threshold=2097152 164194 2052 612420016 1914506373 323 112 288 302514305 2416845831 4112 5816 1 112 14 135266888 2225102848 545259520 1074792448 66 402437 0 1152 536870912 1073810432 2 1 112 135266304 8388608 1 1 1107361792 134217736
is_linear=0
shrinkage=0.102


Tree=6
num_leaves=64
num_cat=17
split_feature=0 0 0 0 1 1 0 2 3 7 0 1 1 2 0 7 3 1 1 1 1 0 1 1 1 1 1 1 1 0 1 1 1 7 1 1 1 1 3 1 1 1 1 7 7 1 1 0 1 1 1 0 3 1 1 7 7 7 7 1 7 1 1
split_gain=110560 10510.1 6276.87 2012.48 1618.57 1952 1477.13 1293.42 965.196 599.631 365.416 335.57 755.184 295.297 237.746 206.481 188.447 183.217 160.32 126.85 170.434 122.636 133.054 119.957 267.132 112.395 97.6596 94.2927 93.0498 87.5145 76.4868 68.998 150.415 67.1094 64.7087 51.6841 46.7645 60.9049 42.4759 41.9105 40.6643 39.1906 37.8523 35.2374 27.6046 22.2895 20.0831 16.9192 14.9257 13.3404 9.46297 7.46099 8.2761 8.17242 6.56106 6.00461 5.36493 4.80041 2.43925 4.36712 1.6492 0.716912 0.687275
threshold=0 1 2 3 233.50000000000003 271.50000000000006 4 5 6 0.091567568236157262 7 251.50000000000003 259.50000000000006 8 9 0.10971958068366035 10 275.50000000000006 234.50000000000003 233.50000000000003 251.50000000000003 11 251.50000000000003 251.50000000000003 237.50000000000003 243.50000000000003 229.50000000000003 251.50000000000003 238.50000000000003 12 271.50000000000006 241.50000000000003 255.50000000000003 0.08453639680527926 246.50000000000003 271.50000000000006 233.50000000000003 271.50000000000006 13 237.50000000000003 265.50000000000006 271.50000000000006 240.50000000000003 0.11391119470394251 0.10971958068366035 271.50000000000006 265.50000000000006 14 228.50000000000003 227.50000000000003 228.50000000000003 15 16 251.50000000000003 278.50000000000006 0.17671535846105393 0.10658224654949856 0.14005357113407574 0.1069329523313475 229.50000000000003 0.22549503068046833 237.50000000000003 273.50000000000006
decision_type=1 1 1 1 2 2 1 1 1 2 1 2 2 1 1 2 1 2 2 2 2 1 2 2 2 2 2 2 2 1 2 2 2 2 2 2 2 2 1 2 2 2 2 2 2 2 2 1 2 2 2 1 1 2 2 2 2 2 2 2 2 2 2
left_child=2 3 4 16 -1 8 29 9 11 33 19 25 -13 26 49 23 21 18 -15 43 34 22 39 24 -9 -6 -12 -28 -23 41 -22 -18 -33 -4 -21 -30 58 38 -38 -2 -25 42 48 -5 -11 -24 -44 55 -3 -8 -45 52 -51 -53 -39 61 -43 -34 -31 -60 -49 -16 -57
right_child=1 6 7 10 5 -7 14 15 -10 44 13 12 -14 17 47 -17 31 -19 -20 20 30 28 45 40 -26 -27 27 -29 35 36 -32 32 57 -35 -36 -37 37 54 -40 -41 -42 56 46 50 -46 -47 -48 60 -50 51 -52 53 -54 -55 -56 62 -58 -59 59 -61 -62 -63 -64
leaf_value=0.053332174828836468 0.010296267420872262 -0.035056672805819068 0.077169175665721054 -0.021588488659561738 0.088278964585480707 0.05824782248248455 -0.045999422646827798 0.024977786982289821 0.11003327612656962 0.044580703206948222 -0.031508902839226707 0.058282575589847112 0.093250981660978421 -0.015928117093653986 -0.045883621549672057 0.015051469482352017 0.004585400951132218 -0.021736503173820237 0.00088146620623207452 -0.014485852232218611 -0.019462958023822453 -0.012348114923600649 0.0044806053440856475 0.022984520223575226 0.052984824321266749 0.10259029742147317 -0.0092204792773947671 -0.017487216097567482 0.0047652759015770346 -0.03586929411255553 -0.029901306082909508 0.03197796521476693 0.012772825187544204 0.065024789021827636 -0.0021316874635900524 -0.0073844999081195172 -0.031276309296903053 -0.039214786880035359 -0.024469485052905065 0.023850108496756714 0.03320707197249112 -0.029219367610361851 -0.024683702674282139 -0.037285604176889149 0.034012763531922195 -0.0053242914924123263 -0.018407647370368409 -0.048903139517770061 -0.027692598480261479 -0.042534190286024946 -0.030141104375034432 -0.036615397907394487 -0.037880388212152206 -0.039624065289176905 -0.033528237695176037 -0.046745189710261689 -0.034211212179587655 0.0082064293522130308 -0.041984271242297228 -0.03668606727400571 -0.050446376067268518 -0.043694518633211082 -0.048694896191021214
leaf_weight=16362.208862304688 4462.4604797363281 3875.6005859375 7356.2467346191406 3809.8368225097656 11452.791137695312 18511.301391601562 3300.7696685791016 5994.1421203613281 28568.668792724609 5282.9695739746094 3588.9267272949219 11062.394134521484 15370.206146240234 7157.3285369873047 3520.0980224609375 6666.8609771728516 5293.143310546875 5603.7002258300781 33657.040374755859 16717.707962036133 24631.261749267578 6477.7251281738281 6544.6182708740234 7033.2220458984375 8700.8504333496094 11594.627563476562 24012.376815795898 35838.340698242188 14714.514297485352 3550.4433441162109 10428.625640869141 5307.3420257568359 5311.0352935791016 13703.9765625 6007.2139129638672 4838.7715148925781 30783.899429321289 7969.1161956787109 13968.493011474609 5119.6595916748047 9714.1641845703125 3809.948974609375 26653.040267944336 3827.4525451660156 5162.9205169677734 3817.7364044189453 6727.0729675292969 34332.244369506836 11917.717880249023 14218.411163330078 4199.9801940917969 18156.639465332031 5938.473388671875 21611.894866943359 3118.6506195068359 24088.020751953125 6381.3248596191406 4556.7859649658203 3642.844482421875 3465.9435729980469 13189.262512207031 9845.6681671142578 3781.7298583984375
leaf_count=29 23 24 22 23 21 34 22 22 39 19 21 20 28 40 24 29 27 33 183 98 145 34 34 24 29 20 134 204 76 23 64 26 27 39 35 26 195 51 87 26 34 24 162 23 22 21 41 239 73 93 25 120 39 143 20 166 40 23 23 22 93 67 26
internal_value=0 -0.0240393 0.0681412 -0.00868001 0.0829992 0.0880344 -0.0376329 0.0440308 0.0950983 0.0593368 -0.0142942 0.086474 0.0786184 -0.0106265 -0.0444063 0.0313631 0.0064841 -0.00443999 -0.00206494 -0.0200782 -0.0181081 0.00285907 0.00887542 0.0348299 0.0415645 0.0954811 -0.0151508 -0.0141715 -0.00175112 -0.0294505 -0.0225695 0.014627 0.0181258 0.0692694 -0.0112226 0.00175575 -0.0320175 -0.0308353 -0.029153 0.0175438 0.0289174 -0.0265692 -0.0253753 -0.029708 0.0393628 0.000862836 -0.0234206 -0.0478382 -0.0295033 -0.0395808 -0.0335546 -0.039233 -0.0411455 -0.0382422 -0.0376204 -0.0461149 -0.0323505 0.0106698 -0.0382352 -0.039409 -0.0493223 -0.0442753 -0.0470118
internal_weight=0 523771 182538 245924 112922 96560 277847 69615.4 78048.7 31506.1 179480 49480 26432.6 109858 151983 38109.2 66443.8 46418.1 40814.4 69622.1 57784.8 45975.5 19944.5 31442.4 14695 23047.4 63439.6 59850.7 26031 125864 35059.9 20468.3 15175.2 21060.2 22724.9 19553.3 66499.4 55840.2 44752.4 9582.12 16747.4 59364.7 49173.4 11837.3 10445.9 10362.4 33380.1 88757 15793.3 63226.2 8027.43 59925.4 20156.9 39768.5 11087.8 41235.5 10191.3 9867.82 10659.2 7108.79 47521.5 13365.8 27869.8
internal_count=3619 3188 431 1371 191 162 1817 240 128 102 1028 89 48 615 1032 138 343 256 223 413 342 240 104 109 51 41 359 338 136 785 209 103 76 61 133 102 421 353 282 49 58 364 300 71 41 55 203 615 97 417 48 395 132 263 71 283 64 50 68 45 332 91 192
cat_boundaries=0 3 6 9 11 14 15 16 19 20 22 23 25 28 29 31 33 34
cat_threshold=2097152 164194 2052 880855472 1914506373 355 0 131168 2048 288 302514305 2148402695 4112 5784 112 1 813694976 1073743872 354 15 1056840 2216714240 1 288 1 2148007938 16 4632 1 1208025088 142606344 1048576 2113536 1
is_linear=0
shrinkage=0.102


Tree=7
num_leaves=60
num_cat=13
split_feature=0 0 0 0 0 1 1 6 6 1 3 1 1 1 0 1 1 1 1 1 1 1 1 1 1 3 6 0 1 1 3 6 1 6 1 1 6 1 1 0 1 0 1 1 1 1 1 0 1 6 6 1 6 1 1 6 1 6 1
split_gain=91619 10003.4 4177.67 2035.71 1107.56 1002.34 969.458 825.889 598.781 531.928 434.159 351.46 326.459 325.865 323.403 214.929 200.076 283.893 198.317 188.493 234.9 146.86 131.553 114.186 136.44 105.13 81.518 69.804 64.9928 53.1286 51.4878 49.2641 44.0415 43.1559 42.7754 41.3787 24.7973 23.593 19.8478 21.8715 19.0736 17.297 15.0763 12.7585 9.91165 7.38912 5.85458 3.7074 3.64591 3.10435 2.77635 2.28167 1.55495 1.06999 1.05083 0.977735 0.918233 0.884867 0.162925
threshold=0 1 2 3 4 233.50000000000003 251.50000000000003 0.00065573011405184727 0.0010034906596528062 245.50000000000003 5 271.50000000000006 233.50000000000003 251.50000000000003 6 237.50000000000003 238.50000000000003 251.50000000000003 251.50000000000003 271.50000000000006 233.50000000000003 240.50000000000003 256.50000000000006 271.50000000000006 233.50000000000003 7 0.00048856779676830148 8 251.50000000000003 269.50000000000006 9 0.0010108611501717293 226.50000000000003 0.00082528905619090218 255.50000000000003 268.50000000000006 0.00076173500014438129 228.50000000000003 228.50000000000003 10 251.50000000000003 11 271.50000000000006 279.50000000000006 251.50000000000003 275.50000000000006 279.50000000000006 12 274.50000000000006 0.0010108611501717293 0.00047750591215354484 226.50000000000003 0.00082211744896183985 266.50000000000006 237.50000000000003 0.00084911976987148889 277.50000000000006 0.00056027798083796313 270.50000000000006
decision_type=1 1 1 1 1 2 2 2 2 2 1 2 2 2 1 2 2 2 2 2 2 2 2 2 2 1 2 1 2 2 1 2 2 2 2 2 2 2 2 1 2 1 2 2 2 2 2 1 2 2 2 2 2 2 2 2 2 2 2
left_child=2 4 5 23 19 -1 9 15 29 -7 16 12 32 21 38 -4 -9 -18 -17 20 31 -14 -15 24 37 28 -20 40 -22 -8 -29 -2 -6 -27 -12 -10 -34 51 -5 42 -26 54 -40 48 -41 -21 56 -43 55 -47 -39 -3 -50 -19 -16 -13 57 -25 -56
right_child=1 3 7 14 11 6 8 10 35 -11 34 43 13 22 41 18 17 53 26 45 25 -23 -24 46 27 33 -28 30 -30 -31 -32 -33 36 -35 -36 -37 -38 50 39 44 -42 47 -44 -45 -46 49 -48 -49 52 -51 -52 -53 -54 -55 58 -57 -58 -59 -60
leaf_value=0.050029825737600141 -0.015380553463164038 -0.03881664136819836 0.0084003232967906662 -0.044533443537398125 -0.031201389697125305 0.078766644698043425 0.078480117611015365 0.027322165021359091 0.057138779213464726 0.1030695004063208 0.066983740909556527 -0.025183571439731552 -0.0088763377553121928 -0.022423444681277729 -0.04588698139936534 0.045506974775388093 0.0609479655727155 0.036565463894794564 0.03129142137834786 -0.011200809664380793 0.0091240080414285163 0.0032923414515742232 -0.01015197043201304 -0.033159022598122978 -0.017311237182670268 0.02109765566564914 0.015014719060260728 -0.027724831690749987 0.00060374674185998496 0.070468921143017116 -0.021592280889436859 -0.002111397377805926 -0.012058720845677806 0.01054246094908034 0.056540615533563945 0.047692063019136852 -0.021525270298230773 -0.03229640866151004 -0.033489602383543024 -0.037527740588212018 -0.022254080563916319 -0.047323506901219517 -0.040832133746313747 -0.019106326472681595 -0.040448915758260769 -0.0040796851050530223 -0.029492831502832221 -0.049573417099130102 -0.02498861469806973 -0.0081969369332192139 -0.028827310959538926 -0.035019978365605914 -0.027872135268744842 0.038598668938135558 -0.042883612522045624 -0.022427129482395898 -0.032193327759908519 -0.034994423699861894 -0.044664519989999978
leaf_weight=18570.496124267578 5270.5996551513672 4787.9862365722656 5883.9286499023438 5327.3501586914062 4103.79541015625 24261.7216796875 21328.979614257812 8002.4234924316406 11906.523712158203 15310.132080078125 8151.8621520996094 3286.3072967529297 16396.891647338867 12479.059951782227 3222.8760681152344 6318.2847900390625 8471.1893310546875 7802.2245483398438 6636.4069519042969 5441.2991638183594 18144.693115234375 27828.465209960938 33591.090240478516 8084.9885864257812 16075.484359741211 6287.0236053466797 6221.6867523193359 42712.159591674805 19170.877288818359 14819.440856933594 21543.103744506836 6527.9382171630859 3767.6825714111328 11338.498336791992 8429.3531799316406 8301.003173828125 12651.055801391602 4148.5638885498047 15669.884658813477 22216.777740478516 16793.875198364258 39172.988906860352 3682.8606109619141 3817.2347412109375 29107.552490234375 3660.9560241699219 4760.6559448242188 33052.375854492188 3444.1726531982422 4157.7453765869141 7573.9162445068359 3253.1348114013672 7005.5816040039062 7079.3421020507812 7885.6086578369141 3478.5328063964844 5219.5335693359375 7410.6181793212891 2803.3387756347656
leaf_count=32 29 31 23 37 25 37 26 26 27 21 20 20 92 71 23 24 24 23 24 30 94 155 191 53 98 31 27 273 101 19 135 34 22 58 21 20 74 27 105 152 103 284 25 23 200 20 31 243 21 23 48 21 43 22 56 21 34 48 20
internal_value=0 -0.0236854 0.0595589 -0.0355272 -0.00666319 0.0717229 0.0759293 0.0404712 0.0673327 0.0881707 0.0483227 -0.0124078 -0.0101137 -0.00747345 -0.0433457 0.0254666 0.0412582 0.0460314 0.0307002 0.00280442 0.0050122 -0.00121802 -0.0134772 -0.0266196 -0.0252708 0.00781696 0.0234199 -0.0236968 0.00474823 0.0751974 -0.0256656 -0.0080437 -0.0217277 0.0143107 0.0616782 0.053261 -0.0193564 -0.0330034 -0.038463 -0.0380101 -0.0198323 -0.0476484 -0.0348718 -0.024499 -0.0391779 -0.00830132 -0.0328166 -0.0483606 -0.0256915 -0.00627629 -0.0300598 -0.0372876 -0.0269271 0.0375365 -0.0439148 -0.0237745 -0.0335777 -0.0340404 -0.0433559
internal_weight=0 516355 187495 304506 211850 114498 95927.8 72996.7 56355.9 39571.9 47936.4 131850 110818 90295.5 162142 25060.3 31355.2 23352.8 19176.4 79999.6 66739.6 44225.4 46070.2 142364 116888 54941.1 12858.1 97124.6 37315.6 36148.4 64255.3 11798.5 20522.5 17625.5 16581.2 20207.5 16418.7 19763.6 76004.4 70677.1 32869.4 86137.2 19352.7 21031.8 51324.3 13260 25475.8 72225.4 17214.6 7818.7 11722.5 8041.12 10449.8 14881.6 13911.8 6764.84 20715.1 15495.6 10688.9
internal_count=3641 3225 416 2047 1178 182 150 234 92 58 136 758 630 509 1145 98 95 69 75 420 347 247 262 902 736 284 51 609 195 45 408 63 121 89 41 47 96 127 519 482 201 626 130 128 352 73 166 527 105 43 75 52 64 45 99 41 135 101 76
cat_boundaries=0 3 6 9 12 14 15 18 19 22 23 26 28 30
cat_threshold=2097152 164194 2052 75549104 840764549 323 0 352 2048 2953708551 1073745936 5688 16672 839385217 1 1057352 2216714240 128 1 805306368 1073741840 4128 1 8704 0 128 134217728 8388608 1124139008 134217736
is_linear=0
shrinkage=0.102


Tree=8
num_leaves=64
num_cat=5
split_feature=7 6 7 7 6 6 6 6 6 6 6 3 6 7 7 7 3 7 6 4 6 6 4 7 7 4 4 6 7 4 6 2 7 4 4 2 4 7 6 4 6 7 4 7 4 7 4 6 7 4 4 4 4 4 4 4 4 3 4 6 6 4 4
split_gain=38334.3 32994.4 5514.15 3476.38 2623.64 2677.3 1617.91 1561.38 1502.87 1230.37 1073.56 781.201 617.626 484.019 451.526 463.398 391.578 329.373 360.591 328.88 275.338 300.762 195.938 177.013 174.566 165.724 148.85 139.304 123.762 114.572 97.2381 90.0593 87.3107 82.9595 77.4192 57.8196 55.855 52.9181 52.6259 44.3202 42.592 36.9461 29.5885 29.1223 20.115 16.5739 10.3796 4.68008 4.45674 4.22852 4.51315 4.07253 4.01565 3.9123 3.80027 3.10783 2.73483 2.63926 2.4987 0.702647 2.90837 0.630136 0.465466
threshold=0.094756573247695458 0.00065573011405184727 0.15907164613412897 0.091567568236157262 0.00087069735305113805 0.0013524894098699508 0.00048856779676830148 0.0015313649486987902 0.00081090644312022174 0.00052890735395337996 0.0010108611501717293 0 0.00047750591215354484 0.087956230408063399 0.17542703293779219 0.17079026106001655 1 0.12426367324520728 0.00082211744896183985 39.500000000000007 0.00027885631114696064 0.00046506348854735295 39.500000000000007 0.14214185405720017 0.21550778393405964 34.500000000000007 35.500000000000007 0.00050943890797643554 0.20810867257805368 39.500000000000007 0.00058995362248472386 2 0.16568280170032548 36.500000000000007 36.500000000000007 3 37.500000000000007 0.050482708840769351 0.00035707011601170222 36.500000000000007 0.00033981486970576641 0.20766038694826075 36.500000000000007 0.14101481187244119 36.500000000000007 0.16278425837350072 37.500000000000007 0.00018566381211200902 0.22549503068046833 34.500000000000007 36.500000000000007 36.500000000000007 37.500000000000007 36.500000000000007 36.500000000000007 36.500000000000007 36.500000000000007 4 36.500000000000007 0.0014139961097412446 0.0034023707472788925 37.500000000000007 36.500000000000007
decision_type=2 2 2 2 2 2 2 2 2 2 2 1 2 2 2 2 1 2 2 2 2 2 2 2 2 2 2 2 2 2 2 1 2 2 2 1 2 2 2 2 2 2 2 2 2 2 2 2 2 2 2 2 2 2 2 2 2 1 2 2 2 2 2
left_child=1 3 6 12 8 11 23 33 16 27 17 19 20 37 15 32 36 22 -19 25 47 35 -11 38 28 -6 -13 51 30 31 -16 -12 45 -7 -9 -22 -3 56 49 -29 -25 -32 -39 -31 -15 57 -5 -1 55 -2 -51 -8 -17 -10 -34 -26 -14 -4 -42 -50 -61 -40 -30
right_child=2 4 14 46 5 7 9 34 53 10 29 26 13 44 24 52 -18 18 -20 -21 21 -23 -24 40 48 -27 -28 39 62 43 41 -33 54 -35 -36 -37 -38 42 61 -41 58 -43 -44 -45 -46 -47 -48 -49 59 50 -52 -53 -54 -55 -56 -57 -58 -59 -60 60 -62 -63 -64
leaf_value=-0.043651220000013972 -0.02783857825222007 0.02621813413373637 -0.036997202908784353 0.026432506999841919 0.051862670208104936 0.00475142202596553 0.023317546918956551 0.051459993467447507 -0.0089371282494970887 -0.0099330016108323382 0.0076535862799233714 0.067479318317401699 -0.017450026800304941 0.0090863264819449011 -0.02802908234166504 -0.00927150335827856 0.057113722013466553 -0.032482565945106887 -0.016628392968553351 0.043476676263168021 -0.020225538397938218 -0.048985896177454656 -0.024022369470078301 -0.049267460117204488 -0.04880934192656821 0.064031298685702481 0.079786324756559057 -0.0034541440219697703 -0.025017409385912761 -0.015887541742538407 -0.040306313188038477 -0.0016413312151596325 -0.02308318456575395 -0.015666207008218851 0.039166282657522491 -0.02849422035491813 0.036833423476896596 -0.020840412841924068 -0.036730157288910839 0.010872739163450839 -0.035233942691229973 -0.048777350740391627 -0.028475395020014053 -0.0040935984313570355 -0.00023359633834655851 -0.042683939131413932 0.032103688892196454 -0.047838853676727328 -0.050507157160482874 -0.019880486576766422 -0.024653101929271694 0.019401332188606426 -0.0048368688083171192 -0.013508255980585014 -0.027657157118687013 -0.043929246456742274 -0.013775368089732379 -0.033384554971655142 -0.039484791148323387 -0.047061672185070659 -0.050486609028262783 -0.034148886316632598 -0.027074131463316276
leaf_weight=6025.5994262695312 2913.1522674560547 11621.748626708984 9416.3916320800781 8139.7723083496094 15131.145782470703 3653.4745330810547 5807.3849945068359 10203.276977539062 3823.1747283935547 67262.90739440918 19753.8408203125 16219.397033691406 4053.8347930908203 4641.6313323974609 6589.7806396484375 4862.2314758300781 8326.7886352539062 22060.164672851562 46241.949890136719 12941.154754638672 15945.696258544922 6340.5286712646484 12129.03515625 6230.2112426757812 2743.2823333740234 51410.862121582031 28075.017883300781 4036.0160827636719 3177.4663391113281 4549.4009857177734 65837.076431274414 24014.275482177734 3861.0021057128906 4768.4361724853516 11304.572326660156 20744.553665161133 9370.96337890625 10375.938674926758 3410.9794769287109 5053.9574127197266 3159.3501586914062 5907.1749114990234 10953.947906494141 4209.7527160644531 4985.9886474609375 5946.9778137207031 6012.9243469238281 6257.033935546875 6033.4342346191406 3018.2787322998047 7801.6549835205078 5868.4954223632812 3906.2479858398438 4233.2663879394531 4265.2769165039062 3695.3922424316406 4983.0904083251953 3246.2861022949219 3549.0661163330078 6294.6837310791016 5900.3661499023438 2951.6237030029297 4371.7865142822266
leaf_count=45 19 36 67 29 24 20 23 23 22 391 100 20 22 23 44 27 21 144 280 23 103 49 76 48 21 80 32 21 21 26 480 126 25 28 28 137 29 67 23 26 22 45 72 24 25 44 21 48 47 19 50 25 22 25 28 28 27 23 25 48 46 20 29
internal_value=0 0.0263287 -0.0218783 -0.0183237 0.0519078 0.0578019 -0.0127978 0.0304222 0.0276672 -0.00965015 -0.0121014 0.0644219 -0.0253287 -0.0156696 -0.0376708 -0.0276584 0.0383892 -0.0165556 -0.0217498 0.0583696 -0.0323117 -0.0284635 -0.0120862 -0.0338529 -0.0408858 0.0612651 0.0752811 0.0139814 -0.0387103 0.00042173 -0.0399137 0.00255383 -0.0343325 -0.00680226 0.045001 -0.0249154 0.0309594 -0.0219881 -0.0278539 0.00450532 -0.043166 -0.0410046 -0.024764 -0.0102256 0.00425386 -0.0381903 0.0288459 -0.0457891 -0.0484578 -0.0242881 -0.0233269 0.021354 -0.00730233 -0.011346 -0.0254908 -0.0460172 -0.01543 -0.0360755 -0.0374912 -0.0493169 -0.0487234 -0.0355415 -0.0262159
internal_weight=0 300544 400076 109461 191083 153707 254021 29929.8 37375.9 220987 200221 123778 95307.8 39994.4 146055 35504.4 29319.5 147694 68302.1 79483.2 55313.4 43030.8 79391.9 33034.3 110550 66542 44294.4 20765.9 85883.3 52527.3 78334 43768.1 26735.9 8421.91 21507.8 36690.2 20992.7 30366.8 20095.7 9089.97 12938.6 71744.3 21329.9 8759.15 9627.62 18609.7 14152.7 12282.6 24667.2 13733.1 10819.9 11675.9 8768.48 8056.44 8126.28 6438.67 9036.93 12662.7 6708.42 18228.5 12195 6362.6 7549.25
internal_count=3612 1079 2533 668 411 278 1488 99 133 1262 1167 179 618 236 1045 236 86 891 424 127 382 289 467 226 809 104 52 95 619 276 569 226 187 48 51 240 65 188 131 47 95 525 139 50 48 134 50 93 190 88 69 48 49 47 53 49 49 90 47 141 94 43 50
cat_boundaries=0 1 2 3 4 5
cat_threshold=1 1 112 112 1
is_linear=0
shrinkage=0.102


Tree=9
num_leaves=64
num_cat=18
split_feature=0 0 0 0 0 3 1 1 0 2 6 1 1 6 1 1 0 3 1 1 0 1 6 1 1 3 0 1 1 1 1 0 6 2 1 6 1 1 1 1 1 1 1 1 1 1 0 6 1 1 6 1 6 0 1 3 1 1 1 1 6 6 6
split_gain=72145.6 9215.99 2816.12 1609.05 1353.46 706.128 544.935 478.501 416.273 305.762 262.154 236.653 461.15 296.323 236.365 307.278 191.775 188.377 143.062 201.676 131.655 123.966 120.389 106.247 76.8796 76.5195 74.7408 74.7026 96.9976 63.2154 88.3298 61.2205 59.5669 52.7934 49.2479 47.8309 38.7984 34.3411 39.5954 26.307 24.8781 21.0365 16.7875 16.6935 21.1509 12.3686 11.0485 9.69475 9.11437 7.21676 6.79713 6.6174 4.66689 4.57079 4.52147 4.35592 2.60432 1.80009 0.842098 0.590654 0.318308 0.202874 0.199785
threshold=0 1 2 3 4 5 233.50000000000003 271.50000000000006 6 7 0.00065573011405184727 251.50000000000003 240.50000000000003 0.00088764428800871436 233.50000000000003 251.50000000000003 8 9 271.50000000000006 233.50000000000003 10 271.50000000000006 0.0015313649486987902 270.50000000000006 240.50000000000003 11 12 233.50000000000003 249.50000000000003 271.50000000000006 234.50000000000003 13 0.00082528905619090218 14 232.50000000000003 0.0012583816586307576 256.50000000000006 251.50000000000003 236.50000000000003 271.50000000000006 238.50000000000003 226.50000000000003 228.50000000000003 230.50000000000003 271.50000000000006 279.50000000000006 15 0.0010783216174953443 228.50000000000003 261.50000000000006 0.00054160401131776845 251.50000000000003 0.00045856745710787304 16 275.50000000000006 17 239.50000000000003 274.50000000000006 253.50000000000003 239.50000000000003 0.0034023707472788925 0.00046506348854735295 0.0006356968376467658
decision_type=1 1 1 1 1 1 2 2 1 1 2 2 2 2 2 2 1 1 2 2 1 2 2 2 2 1 1 2 2 2 2 1 2 1 2 2 2 2 2 2 2 2 2 2 2 2 1 2 2 2 2 2 2 1 2 1 2 2 2 2 2 2 2
left_child=2 3 5 9 20 11 -4 10 14 31 25 12 34 -13 32 24 43 22 19 41 46 -17 -12 27 -16 58 -21 -11 -29 30 48 37 -5 -32 -1 -15 -7 38 -2 40 -33 -10 -34 -6 51 52 55 -39 -18 56 -20 -45 -31 62 -52 59 -48 -51 -8 -3 61 -55 -22
right_child=1 4 6 8 16 36 7 -9 18 23 17 13 -14 35 15 21 29 -19 50 26 53 -23 -24 -25 -26 -27 -28 28 -30 45 33 39 42 -35 -36 -37 -38 47 -40 -41 -42 -43 -44 44 -46 -47 49 -49 -50 57 54 -53 -54 60 -56 -57 -58 -59 -60 -61 -62 -63 -64
leaf_value=0.044625424743941565 -0.00088839880890873967 -0.04524387740909129 0.012695508947707622 -0.030422936846028474 -0.042026041727589301 0.064541896264372484 0.026346540137144232 0.018787760621125544 -0.035379394918614859 0.00089825998862952611 0.03472749876370243 0.057183060118244616 0.071028883634600692 0.03722539448178281 -0.0054123343824562034 -0.0083540478157290224 -0.036023424837652182 0.05613486241845838 -0.031041522753834636 -0.0085463507877755057 -0.047794114877384213 -0.019708783842542273 0.050075050534482149 -0.002394636907281296 0.0054530175299013503 0.039558727862318691 -0.016645121683243901 0.023285713165101835 0.009985085785617567 -0.031644093124776604 -0.027023360362976253 -0.009491291727755825 -0.021757098470363889 -0.020940008579761225 0.05353887346540577 0.045821351606983411 0.07035916629663444 -0.0046430241397633571 0.012287861324259085 -0.012635850072575573 -0.00095994243966375265 -0.025872173994505417 -0.012780350724983703 -0.032301421402037532 -0.0405156939654331 -0.02704057112999142 -0.04213123380558037 0.0012427224905045824 -0.030845088036767089 -0.035145116336422803 -0.023509680605057565 -0.035568785357041666 -0.035996521689501029 -0.049719822017628694 -0.02812560648687043 -0.040103810242241536 -0.03921685567052953 -0.038689761477908674 0.024275708358509278 -0.043253862531602849 -0.05053848302713787 -0.048672668975491898 -0.046588087147972794
leaf_weight=13029.212280273438 4153.8260192871094 3876.9944381713867 11722.787658691406 4808.1088409423828 4157.1430969238281 26669.745483398438 5496.7996215820312 12640.591827392578 3169.4036560058594 3833.5606384277344 14295.963287353516 18093.440979003906 16165.388244628906 17790.755187988281 10717.703018188477 32093.319808959961 6056.222900390625 12313.608306884766 5084.609619140625 16374.583358764648 6337.5488204956055 14555.386016845703 8515.7506713867188 4788.6481170654297 18408.360794067383 6220.4326477050781 44059.02018737793 10872.815963745117 12046.612930297852 4140.3475341796875 33059.29736328125 5299.5611114501953 3644.9748992919922 28231.5625 13044.307708740234 10997.349731445312 22320.358184814453 5638.9820404052734 5510.7771301269531 4439.3087615966797 10863.775253295898 10914.578674316406 5487.7921447753906 14293.956649780273 6204.4259185791016 2883.8136596679688 5944.2863159179688 5997.7139129638672 9339.4112243652344 5048.8293609619141 3816.4476776123047 12987.946197509766 8348.8640289306641 11662.585136413574 6092.7606964111328 4937.1104431152344 9959.7409057617188 2835.668701171875 5328.8095703125 9989.9596557617188 5000.1025238037109 17191.2841796875 24662.802047729492
leaf_count=21 22 30 39 29 31 29 20 39 21 20 41 21 22 33 60 183 42 26 35 96 51 90 20 26 101 22 277 53 60 29 223 29 22 186 20 19 25 31 28 25 57 70 32 104 46 20 44 32 64 37 25 95 58 95 40 38 73 21 20 77 41 138 195
internal_value=0 -0.0222705 0.048646 -0.00871478 -0.0367123 0.0573484 0.032936 0.0366011 -0.0139253 0.00399978 0.0409161 0.0519423 0.0574857 0.0469467 -0.00901131 -0.00676559 -0.0296895 0.0459562 -0.0188484 -0.0170194 -0.0451856 -0.0118982 0.0404593 0.0115842 0.0014529 0.0305271 -0.0144558 0.0140928 0.0162973 -0.0271656 -0.0259685 -0.00170917 -0.0212203 -0.02423 0.0490869 0.0405111 0.0671934 0.00212286 0.00661893 -0.00567297 -0.00376063 -0.0280156 -0.0163692 -0.0358515 -0.035094 -0.0331516 -0.0407025 -0.00160461 -0.0328857 -0.0390088 -0.027947 -0.033859 -0.0345581 -0.0481223 -0.0263535 -0.0428203 -0.0403097 -0.0364271 0.0253324 -0.0438143 -0.0492977 -0.0490979 -0.0468213
internal_weight=0 489823 214645 252673 237150 138111 76534.7 64812 179227 73445.6 52171.4 89120.5 42238.9 46881.5 89715.6 75774.8 129703 35125.3 89511.4 74517.6 107447 46648.7 22811.7 31541.6 29126.1 17046 60433.6 26753 22919.4 92059.5 76686.5 41903.9 13940.9 61290.9 26073.5 28788.1 48990.1 21301.3 9664.6 20602.6 16163.3 14084 9132.77 37643.5 33486.3 15373 42592.6 11636.7 15395.6 23788.5 14993.8 27281.9 12489.2 64854.3 9909.21 18804.1 15904 7884.5 10825.6 13867 33854 28853.9 31000.4
internal_count=3619 3202 417 1464 1738 190 227 188 1081 383 149 136 63 73 517 434 898 87 564 464 840 273 61 159 161 62 373 133 113 622 515 224 83 409 41 52 54 113 50 111 86 91 54 276 245 107 320 63 106 175 100 199 87 520 65 145 117 58 40 107 274 233 246
cat_boundaries=0 3 6 9 11 13 14 17 18 21 22 24 25 28 30 31 33 35 36
cat_threshold=2097152 164194 2052 881379760 1914506389 355 0 352 2048 416 302514305 1263603720 2313175560 1 67160080 537199620 1 15 8768 67117056 128 1 135266312 2157985792 1 0 1048576 320 288 129 15 135266304 8388608 1107361792 134217736 1
is_linear=0
shrinkage=0.102


Tree=10
num_leaves=75
num_cat=5
split_feature=7 7 7 7 7 7 2 7 7 7 7 7 7 7 7 7 7 1 1 1 7 7 1 7 7 1 7 7 7 3 2 7 7 7 1 7 1 1 1 7 7 7 7 1 7 7 3 1 2 7 1 1 7 7 7 7 1 1 1 7 7 7 1 1 1 1 7 7 1 1 7 7 7 1
split_gain=31453 5424.99 3530.71 4212.92 3828.19 2183.88 1482.4 1252.2 3518.67 1105.69 1981.68 1179.37 592.099 412.727 1382.39 411.287 468.845 387.082 458.651 323.848 299.694 597.887 266.957 235.582 187.586 187.018 162.317 206.488 155.423 149.021 147.216 138.406 130.871 113.561 110.858 103.757 100.316 98.1171 95.4216 94.7351 186.758 76.6037 75.5468 61.3322 50.1888 59.2508 48.7912 42.1838 32.9391 22.887 20.4043 20.0635 18.4604 26.5205 24.0612 16.7075 18.9747 14.8336 12.4454 11.6102 17.7939 8.87611 8.01282 6.07584 4.81679 4.60666 3.65618 2.40934 2.42603 1.94345 1.23979 0.751367 3.01207 0.487334
threshold=0.094756573247695458 0.15907164613412897 0.071054322034831349 0.08453639680527926 0.047762129895975329 0.041143820320868905 0 0.069794312028717942 0.05900767473225773 0.032952081512510188 0.012020784282030435 0.022633469658841384 0.050482708840769351 0.087956230408063399 0.08987537139506574 0.17542703293779219 0.17079026106001655 271.50000000000006 233.50000000000003 251.50000000000003 0.050482708840769351 0.069794312028717942 256.50000000000006 0.089619689439008374 0.21550778393405964 249.50000000000003 0.11662545899391223 0.10971958068366035 0.079487051257151789 1 2 0.14619345266778697 0.20810867257805368 0.065251696519503355 251.50000000000003 0.10559429526650477 226.50000000000003 236.50000000000003 251.50000000000003 0.072469762704745241 0.075541841372066362 0.16568280170032548 0.081996996721632229 236.50000000000003 0.17604869223853573 0.20766038694826075 3 252.50000000000003 4 0.11391119470394251 252.50000000000003 251.50000000000003 0.10971958068366035 0.11909184893460646 0.14619345266778697 0.16278425837350072 239.50000000000003 251.50000000000003 256.50000000000006 0.11391119470394251 0.1353495268000717 0.14214185405720017 251.50000000000003 252.50000000000003 246.50000000000003 251.50000000000003 0.10658224654949856 0.22549503068046833 249.50000000000003 256.50000000000006 0.13127534559046714 0.23127266977874045 0.26026053229410689 251.50000000000003
decision_type=2 2 2 2 2 2 1 2 2 2 2 2 2 2 2 2 2 2 2 2 2 2 2 2 2 2 2 2 2 1 1 2 2 2 2 2 2 2 2 2 2 2 2 2 2 2 1 2 1 2 2 2 2 2 2 2 2 2 2 2 2 2 2 2 2 2 2 2 2 2 2 2 2 2
left_child=2 17 4 28 5 9 20 8 12 10 -1 -12 -8 25 23 16 41 18 35 26 -6 29 47 57 32 -5 27 -20 39 -22 -24 -28 44 -10 -11 -2 70 -16 -39 51 -41 55 50 -7 -17 -46 65 -21 52 -38 -30 -4 -19 -54 -55 56 -3 -15 -25 66 -61 -62 -43 -44 -18 -45 -50 68 -26 -34 -37 -69 -73 -42
right_child=1 15 3 13 6 43 7 -9 33 34 11 -13 -14 14 37 24 64 48 19 22 21 -23 30 58 67 -27 31 -29 42 -31 -32 -33 69 -35 -36 36 49 38 -40 40 73 62 63 46 45 -47 -48 -49 59 -51 -52 -53 53 54 -56 -57 -58 -59 -60 60 61 -63 -64 -65 -66 -67 -68 71 -70 -71 -72 72 -74 -75
leaf_value=-0.048847800028188434 -0.008070225617449106 -0.042816468161422823 -0.012293484604463658 0.04509693873970274 0.066560596612031148 -0.041582948947062888 0.044947501005523416 0.049904564521982712 -0.043162633955317678 0.044094845173788727 0.033589978902179171 -0.013649823200244939 0.025081259525350667 0.0067917029145358404 0.018425571659355117 -0.048135088211861091 -0.0092002909083824785 -0.023137218670703827 -0.0033177141453555239 -0.03129434875020911 0.026690751527774136 0.06432354111953463 -0.0046018910109521822 -0.027516941806608703 -0.048911257720008171 0.025601237622709251 -0.0097745275997385209 0.013953054232724353 -0.0011729180694518113 0.045231368919856275 -0.01430648760483688 0.0022993687255824569 -0.025546298253527933 -0.021242588503129368 0.029323501873315498 -0.03518317319683037 -0.013849343325802961 0.041295115255418097 0.027785775139299286 -0.047426758501421119 -0.021305163503008685 -0.021401209862093203 -0.017951919752182639 -0.025302265422445142 -0.037353476870144724 -0.048345383416518679 -0.012827595195731378 -0.019446687137577721 -0.022236107208600704 -0.02114488595495476 -0.011743489818694183 -0.023227370409857218 -0.0084841636315526152 -0.021284781635628563 -0.011131591830673431 -0.042206354803490491 -0.0331861863781409 -0.0011497310343157872 -0.018339389843476082 -0.029612972263479486 -0.018322168553502608 -0.025087154677087681 -0.028434665176062014 -0.023997288591070153 -0.0042281551169312242 -0.030724902589430381 -0.017491970950681186 -0.050337111011744026 -0.044143398379261074 -0.021756052659310268 -0.031977736830434651 -0.046764679535620503 -0.050420769339951058 -0.02333045751321423
leaf_weight=5515.8784332275391 6358.7298889160156 2845.1099090576172 3312.0961761474609 8995.7821655273438 14321.533874511719 2728.0598297119141 28410.277893066406 29972.691162109375 4542.9019622802734 10742.364135742188 17333.176544189453 8050.8374938964844 34687.061813354492 4479.0155944824219 6412.0930786132812 5858.7142791748047 3525.0936126708984 4862.0975952148438 20390.847518920898 3775.7280578613281 8542.5259170532227 14456.468017578125 39506.615020751953 3062.2363739013672 2493.6753387451172 11933.807586669922 36971.443572998047 11133.048919677734 3645.8475494384766 9608.6817245483398 27702.056503295898 13469.60319519043 3610.0635681152344 5395.1340637207031 10480.497222900391 3406.1483459472656 5893.8642120361328 8553.4870300292969 15095.614532470703 5330.9783935546875 3564.5125885009766 3377.4508514404297 3286.3247985839844 2802.7488708496094 62616.037971496582 5596.8432769775391 2803.34716796875 18783.779403686523 3918.2041625976562 19294.461349487305 3996.6910705566406 3769.7219848632812 3815.9710235595703 8313.5074157714844 3470.2358093261719 5828.074089050293 9172.1379699707031 5372.9194946289062 3212.091552734375 5665.3660888671875 3652.0818634033203 4790.0752716064453 3597.3341064453125 3955.1461791992188 4931.6374664306641 4584.0832672119141 3296.1094055175781 5690.2950973510742 2892.3217010498047 2854.1356353759766 3100.0434875488281 5971.1764221191406 5101.5148620605469 3836.2125854492188
leaf_count=47 37 22 21 20 14 20 33 31 37 22 47 45 103 22 20 49 20 32 118 23 33 13 231 21 21 30 224 55 20 31 168 77 25 36 24 23 34 24 45 45 24 23 22 20 486 47 19 111 25 122 24 25 22 55 22 47 70 27 22 39 22 32 25 27 28 33 20 49 24 20 20 50 44 26
internal_value=0 -0.020501 0.0228278 0.00717988 0.0302384 0.00957106 0.0392033 0.0323443 0.0251415 0.0188765 0.00656241 0.0186051 0.0340271 0.0220986 0.0167119 -0.0369172 -0.0270572 -0.0116286 -0.00984246 -0.00759691 0.0542389 0.048842 -0.0118296 -0.00737831 -0.0401119 0.0339834 -0.00296055 0.00277989 -0.0216765 0.0365087 -0.00860558 -0.00654924 -0.0378224 -0.0312684 0.0368029 -0.0199751 -0.0223618 0.0296369 0.0326743 -0.0275961 -0.0328618 -0.0341249 -0.0137925 -0.0279706 -0.0390383 -0.0382562 -0.0243208 -0.0214321 -0.020595 -0.01944 -0.00670817 -0.0181216 -0.0176154 -0.0159021 -0.0182995 -0.0376737 -0.0354708 0.00245501 -0.0228275 -0.0234325 -0.0251613 -0.0221673 -0.0250368 -0.0212615 -0.00630737 -0.028675 -0.0200764 -0.0484341 -0.0463613 -0.0238815 -0.0336645 -0.0490967 -0.0484542 -0.0223626
internal_weight=0 387532 316793 101815 214978 65041 149937 103008 73035.4 52122.8 30899.9 25384 63097.3 67117 46187.5 135962 33276.8 251570 209786 171733 46929.2 32607.7 89768.2 16126.3 102685 20929.6 81964.9 31523.9 34697.5 18151.2 67208.7 50441 80535.8 9938.04 21222.9 38053.2 31694.5 30061.2 23649.1 19813.5 12731.7 24820.1 14884 12918.2 74071.6 68212.9 10190.2 22559.5 41783.6 25188.3 7642.54 7081.82 20461.8 15599.7 11783.7 17845.3 12017.2 9851.94 6274.33 21321.8 14107.5 8442.16 6974.78 7241.47 8456.73 7386.83 7214.31 22149 5386 6464.2 6506.19 16763 11072.7 7400.73
internal_count=3635 2562 1073 465 608 277 331 240 209 185 139 92 136 231 181 1050 235 1512 1243 1007 91 77 533 92 815 50 474 173 234 64 399 301 627 73 46 236 199 89 69 141 95 187 93 92 582 533 72 134 269 156 44 46 131 99 77 139 92 49 43 138 93 54 48 49 48 53 45 188 45 45 43 143 94 50
cat_boundaries=0 1 2 3 4 5
cat_threshold=48 1 116 1 22
is_linear=0
shrinkage=0.102


Tree=11
num_leaves=68
num_cat=5
split_feature=7 6 7 7 2 6 6 6 6 7 6 6 6 7 7 7 7 6 7 6 6 7 7 4 7 7 3 6 7 6 4 4 6 7 6 6 6 7 2 4 7 3 6 3 7 4 4 6 6 4 4 6 7 4 4 7 4 4 6 4 4 4 4 4 6 6 4
split_gain=27118.9 20033.8 5160.07 2870.04 1702.61 1364.33 745.076 998.371 636.861 698.128 558.953 526.594 699.964 498.058 440.852 474.715 415.501 396.665 267.514 243.761 282.761 227.498 201.877 180.654 180.266 164.075 155.014 123.049 111.166 92.9825 90.1411 89.6074 86.2397 85.7144 79.8976 69.6394 68.1718 66.0658 60.1592 56.4995 47.5211 45.7221 43.5625 38.913 34.5401 29.2436 26.2494 26.1522 25.6341 16.4009 16.2849 13.0313 12.2919 12.5235 12.0662 6.0989 5.81241 5.17874 4.56664 3.53641 3.4351 3.31459 1.79882 1.43275 1.00969 3.297 0.125878
threshold=0.094756573247695458 0.00065573011405184727 0.15907164613412897 0.091567568236157262 0 0.00048856779676830148 0.00052890735395337996 0.0010783216174953443 0.00087069735305113805 0.079487051257151789 0.00047750591215354484 0.0013524894098699508 0.00087069735305113805 0.11391119470394251 0.17542703293779219 0.17079026106001655 0.087956230408063399 0.00082211744896183985 0.053420503038070992 0.00027885631114696064 0.00046506348854735295 0.14005357113407574 0.14214185405720017 36.500000000000007 0.21550778393405964 0.11332180292007078 1 0.00076842653354921642 0.17944143312160724 0.00050943890797643554 35.500000000000007 37.500000000000007 0.0012086883551054273 0.16568280170032548 0.0011059233504163418 0.00058431661474314493 0.00035707011601170222 0.055534769268901607 2 36.500000000000007 0.055534769268901607 3 0.00033981486970576641 4 0.055534769268901607 37.500000000000007 36.500000000000007 0.0025302517050503058 0.0006356968376467658 37.500000000000007 38.500000000000007 0.00089601043200250748 0.16278425837350072 34.500000000000007 37.500000000000007 0.22549503068046833 34.500000000000007 36.500000000000007 0.00018566381211200902 36.500000000000007 36.500000000000007 36.500000000000007 37.500000000000007 37.500000000000007 0.0034023707472788925 0.0014139961097412446 36.500000000000007
decision_type=2 2 2 2 1 2 2 2 2 2 2 2 2 2 2 2 2 2 2 2 2 2 2 2 2 2 1 2 2 2 2 2 2 2 2 2 2 2 1 2 2 1 2 1 2 2 2 2 2 2 2 2 2 2 2 2 2 2 2 2 2 2 2 2 2 2 2
left_child=1 3 5 10 8 22 26 13 27 31 19 12 18 25 15 33 35 -15 -6 58 38 57 36 -13 28 -8 29 -3 48 -7 -11 44 41 52 -23 43 50 -14 -21 -29 -33 -30 -24 -12 -10 -39 -20 -34 63 -37 56 -50 53 -4 -5 61 -2 -9 -1 -35 -44 -26 -17 -16 65 -57 -18
right_child=2 4 14 54 11 6 7 21 9 30 16 23 37 17 24 62 66 -19 46 20 -22 34 42 -25 55 -27 -28 39 32 -31 -32 40 47 59 -36 49 -38 45 -40 -41 -42 -43 60 -45 -46 -47 -48 -49 51 -51 -52 -53 -54 -55 -56 64 -58 -59 -60 -61 -62 -63 -64 -65 -66 -67 -68
leaf_value=-0.04282325186785068 -0.022271253825855597 0.023846272769271881 -0.042046703184523353 0.019276616414859261 0.04833704893394896 0.011660124605242649 -0.0087104919271586995 -0.0071787289305804934 0.030867838029933231 0.023280249286176426 -0.020949609756495645 0.041685250234892557 0.051838691623909125 -0.030748516248193521 -0.034400917629741158 -0.0066751512992144343 0.003931142838851636 -0.014778261652496445 0.030359572118611251 -0.027739195634257491 -0.048725125336009249 0.016746400871565304 -0.049170997320133102 0.020027788070520216 -0.048101817730673686 0.0061638026178326803 0.023087428702412538 0.00075376678390199476 -0.034264363787967864 -0.0046125838236609528 0.0071440223997044968 0.036769167181530601 -0.047923087165310421 -0.021194114288452109 0.0054311263825671261 -0.025645580891348302 -0.033933484652741652 0.056399018071390819 -0.018787494267217344 0.01394230337508391 0.044577286934015171 -0.026204863759261936 -0.033588790644803621 -0.010677498694979455 0.036613425824098988 0.061910983263866549 0.021087416560103447 -0.037418989938892117 -0.042572653562453294 -0.036167799141329574 -0.025988668886686141 -0.048403551955174914 -0.041610081872492176 -0.033772308467614573 0.024810258643588011 -0.050294737612999449 -0.016633434754593238 -0.01254116824141658 -0.047250062601320815 -0.02598018633386534 -0.03868398821838033 -0.042609612390955981 -0.0036364416104573993 -0.038158238661125478 -0.05048689278340926 -0.046433247685962332 0.0030897518771139279
leaf_weight=5674.955680847168 2852.0375366210938 8763.2705993652344 2472.0633392333984 9493.4630126953125 9553.4886169433594 7964.3935852050781 55683.85221862793 3445.6374053955078 18314.871612548828 5886.1953430175781 14868.114624023438 7984.9062194824219 22090.245178222656 20696.793563842773 2966.0172348022461 4962.5107269287109 4463.3419799804688 74326.19075012207 6494.9219970703125 18404.599609375 5588.2072448730469 10266.044342041016 4997.6952209472656 8073.5430297851562 2262.1035385131836 8952.0970306396484 6529.5849151611328 5840.4662475585938 25448.435722351074 6743.0072174072266 9319.1306762695312 14194.275695800781 4992.3131408691406 3156.3379516601562 17724.425491333008 3351.1036682128906 5994.6643981933594 23819.007659912109 14092.425933837891 8050.9314727783203 19336.023010253906 10391.368896484375 2908.5365295410156 5206.7605590820312 27556.20703125 17935.161285400391 6347.6373748779297 5045.3833312988281 16912.157592773438 2961.6398010253906 4394.4354248046875 5469.4376220703125 4992.4801940917969 9490.6315002441406 7465.9059448242188 5300.52392578125 6343.2420654296875 4302.4878082275391 5084.0493392944336 3793.4476470947266 3243.4016265869141 3114.3770751953125 3617.7637176513672 2453.7712020874023 5291.6396484375 5356.9643859863281 5199.4109649658203
leaf_count=47 20 26 20 31 22 32 332 19 30 20 96 19 19 146 24 28 22 466 20 132 50 52 43 22 20 48 28 24 199 36 33 22 44 22 90 23 44 26 97 30 25 79 22 32 33 22 22 41 141 21 31 48 42 75 24 48 42 25 45 27 25 27 21 20 48 47 26
internal_value=0 0.0207976 -0.0195818 -0.0165904 0.0381422 -0.0109901 -0.00813655 -0.0101088 0.0297413 0.0334227 -0.0242435 0.0477637 0.0509272 -0.0135584 -0.0362517 -0.0259893 -0.0146067 -0.0182573 0.0354053 -0.0313549 -0.0275213 0.00530052 -0.0311022 0.0308002 -0.0397602 -0.00664953 0.0100068 0.0143782 -0.0373664 0.00419565 0.0133943 0.0372575 -0.0342758 -0.033377 0.00958323 -0.0212335 -0.0248577 0.0563713 -0.0238733 0.00840138 0.0412736 -0.0319292 -0.0420656 -0.0182882 0.0343206 0.058768 0.025781 -0.0426489 -0.0424644 -0.030591 -0.02085 -0.0440001 -0.0372932 -0.0354869 0.021716 -0.048028 -0.0183882 -0.0101637 -0.0449203 -0.0238146 -0.0362842 -0.0449308 -0.00540046 -0.0361124 -0.0490685 -0.048359 0.00348421
internal_weight=0 321414 374858 101854 219560 247369 216635 195398 117261 94606.7 84894.6 102299 86240.5 159659 127490 32485.2 36050.4 95023 22396 48844.2 38085.2 35738.6 30734 16058.4 95004.5 64635.9 21237 22654.7 73678.9 14707.4 15205.3 79401.4 45877.5 23905 27990.5 26387.6 19584.4 63844.4 32497 13891.4 33530.3 35839.8 11149.6 20074.9 45871.1 41754.2 12842.6 10037.7 27801.4 6312.74 13589.7 22381.6 16955.2 11962.7 16959.4 21325.6 9195.28 7748.13 10759 6949.79 6151.94 5376.48 8580.27 5419.79 15949.1 10657.5 9662.75
internal_count=3583 1061 2522 646 415 1501 1274 1178 243 163 591 172 131 992 1021 235 220 612 64 371 279 186 227 41 786 380 96 80 596 68 53 110 363 186 142 172 137 67 229 54 47 278 90 128 63 48 42 85 233 44 93 189 137 95 55 190 62 44 92 49 47 47 49 44 143 95 48
cat_boundaries=0 1 2 3 4 5
cat_threshold=15 1 15 1 1
is_linear=0
shrinkage=0.102


Tree=12
num_leaves=64
num_cat=2
split_feature=7 6 7 7 2 6 6 6 6 7 6 6 7 7 6 7 6 1 1 7 7 1 1 7 6 1 7 1 6 6 2 7 6 6 7 6 6 1 7 7 7 1 1 7 1 1 1 1 1 1 1 1 1 1 1 7 1 6 6 6 1 1 1
split_gain=26849.9 18679.5 5140.62 2235.8 1723.46 1311.23 810.479 818.767 621.273 707.867 605.345 587.353 380.079 469.801 348.969 303.902 215.239 213.891 311.426 198.592 194.987 187.59 235.699 161.088 145.873 199.839 134.797 127.873 126.787 123.298 104.571 100.461 90.8648 89.4093 77.746 54.4821 46.5333 45.0422 37.2424 36.4598 34.8889 30.1375 20.6326 15.2856 15.2142 14.4874 14.32 13.4297 12.4775 11.5092 11.5073 8.13699 7.1893 6.33909 5.26771 2.63619 3.10557 2.61844 0.948792 3.73162 0.676958 0.591042 0.410739
threshold=0.094756573247695458 0.00065573011405184727 0.15907164613412897 0.087956230408063399 0 0.00048856779676830148 0.00050943890797643554 0.0010108611501717293 0.00087069735305113805 0.079487051257151789 0.0004401474176166439 0.00087069735305113805 0.17542703293779219 0.17079026106001655 0.00027885631114696064 0.022633469658841384 0.00076842653354921642 271.50000000000006 234.50000000000003 0.14214185405720017 0.21550778393405964 237.50000000000003 271.50000000000006 0.14619345266778697 0.0010034906596528062 254.50000000000003 0.20810867257805368 245.50000000000003 0.0005692103190168519 0.00058995362248472386 1 0.041143820320868905 0.0011059233504163418 0.0018025802537077803 0.16568280170032548 0.00035707011601170222 0.00033981486970576641 254.50000000000003 0.20766038694826075 0.065251696519503355 0.14273106392327592 245.50000000000003 263.50000000000006 0.16278425837350072 256.50000000000006 264.50000000000006 239.50000000000003 249.50000000000003 251.50000000000003 268.50000000000006 245.50000000000003 251.50000000000003 246.50000000000003 251.50000000000003 239.50000000000003 0.22549503068046833 249.50000000000003 0.00018566381211200902 0.0034023707472788925 0.0014139961097412446 258.50000000000006 256.50000000000006 251.50000000000003
decision_type=2 2 2 2 1 2 2 2 2 2 2 2 2 2 2 2 2 2 2 2 2 2 2 2 2 2 2 2 2 2 1 2 2 2 2 2 2 2 2 2 2 2 2 2 2 2 2 2 2 2 2 2 2 2 2 2 2 2 2 2 2 2 2
left_child=1 3 5 14 11 19 52 17 16 21 44 37 13 34 57 -16 -6 18 -8 35 26 -10 -23 33 -13 -26 29 -11 50 48 31 -17 -25 -9 43 49 -21 -3 -31 -32 -19 -18 -43 46 -5 -29 -4 -30 -14 54 -12 -36 -7 -38 -2 56 -22 61 59 -57 -28 -1 -37
right_child=2 4 12 10 8 6 7 23 9 27 28 24 20 -15 15 30 41 40 -20 36 55 22 -24 32 25 -27 60 45 47 38 39 -33 -34 -35 51 62 53 -39 -40 -41 -42 42 -44 -45 -46 -47 -48 -49 -50 -51 -52 -53 -54 -55 -56 58 -58 -59 -60 -61 -62 -63 -64
leaf_value=-0.044304683495487857 -0.023018930040705776 0.035164235017926877 -0.040637511089836459 -0.02625117471974555 0.027307764649786806 0.01407954765206312 -0.021847775778173532 -0.005724734473741824 0.027645582511636298 0.026278367114521851 0.015167729503346522 0.057217864605963988 -0.018878391596634639 -0.0014536926350070876 -0.048680991230303942 0.00052374444156475062 0.0045399747737795964 -0.020320666146348636 -0.0090533994102460543 -0.049125779144638095 -0.048859561466495137 0.04099132632170735 0.028070549083195714 0.015832432961332913 0.055126001221654161 0.037665012065487315 -0.023509198162356457 0.012869694489592983 0.007925297549163263 -0.038873769089178396 -0.029435921016508437 -0.019238529390172541 0.0017446042020265165 0.0063614393210074368 -0.01961584215347198 -0.031087430253388743 -0.031598037769275611 0.023608645227834509 -0.048052119657902084 -0.022345623603730966 -0.031034680041344229 0.017731750685746013 0.0092454673591234986 -0.041267972494585234 -0.016405334675902872 0.0060521491398018486 -0.032308336484981701 0.00039150002078927913 -0.028454705756315615 -0.026575857427046889 0.020915178374146481 -0.026879740076832262 0.019042698617704093 -0.038795809097487317 -0.017738981212536288 -0.050330191016087392 -0.043503324974148556 -0.046633452139374761 -0.050445175110668157 -0.046240687831866759 -0.02098950085369123 -0.041437656131805493 -0.033293908719278148
leaf_weight=2997.9594192504883 2800.0123596191406 7712.1094970703125 2979.7817153930664 3601.4839019775391 12877.588287353516 5299.9424896240234 24620.259185791016 25756.114715576172 20953.650238037109 7943.9407653808594 6151.4342651367188 34983.342163085938 2666.2662124633789 6312.1274871826172 4790.2035140991211 3112.1937255859375 6515.4009399414062 20861.869827270508 101162.01705932617 4983.2808227539062 2478.6557006835938 72334.187347412109 18472.005981445312 9770.47998046875 15217.837707519531 12413.753433227539 3399.2481689453125 7515.6709289550781 4536.8643951416016 54884.854339599609 14488.371147155762 18867.120986938477 9313.8990325927734 8455.9085083007812 3097.7103881835938 3193.5818023681641 2561.8224639892578 6524.9615173339844 5083.1658935546875 15997.769348144531 3756.946662902832 5568.7727661132812 6509.3211517333984 5136.5618515014648 3072.3872833251953 5778.6181793212891 8455.1611480712891 5418.3102722167969 3154.845817565918 2836.6233367919922 9206.2683715820312 3550.8261108398438 7549.5578460693359 2852.4300918579102 7557.3242950439453 5250.5504608154297 2761.7602996826172 4633.8851318359375 4716.668586730957 5331.2255859375 2701.2865142822266 2408.2908554077148 3288.0967712402344
leaf_count=26 20 21 25 26 34 20 162 144 27 24 20 28 20 36 45 17 23 140 620 45 23 85 26 49 27 25 25 25 22 468 102 131 47 43 22 24 20 19 47 113 27 20 24 45 22 21 69 27 24 21 29 26 30 23 51 50 25 43 45 49 20 21 25
internal_value=0 0.0206375 -0.0190872 -0.016603 0.0359589 -0.0106158 -0.00784382 -0.00941127 0.0300585 0.0331103 0.00559734 0.0485753 -0.0362169 -0.0261378 -0.0271561 -0.0240781 0.0171692 -0.0132609 -0.0115582 -0.0305742 -0.0394368 0.0363546 0.0383636 0.00145114 0.0528348 0.0472835 -0.0369293 0.0160354 0.0128037 -0.0382755 -0.0218308 -0.0164302 0.00895998 -0.00273585 -0.0328454 -0.0245418 -0.0419841 0.0298722 -0.0396527 -0.0257087 -0.021958 0.0101443 0.0131628 -0.03659 -0.0217269 0.00991054 -0.0344837 0.00383051 -0.0240781 -0.0207679 0.0186167 -0.0235038 0.0169999 -0.0354005 -0.0191718 -0.0482106 -0.0460475 -0.044703 -0.0489479 -0.0482752 -0.0224027 -0.0430379 -0.0322154
internal_weight=0 340604 368581 99282.5 241321 246620 216547 203697 164469 132998 31986.7 76852 121961 29532.2 67295.8 57255.7 31471.1 150401 125782 30073.2 92428.5 111760 90806.2 53296.4 62614.9 27631.6 71889.7 21238.2 25312.9 65789.1 52465.5 21979.3 19084.4 34212 23220 19675.6 10397.5 14237.1 59968 30486.1 24618.8 18593.5 12078.1 16571.5 6673.87 13294.3 11434.9 9955.17 5821.11 13194 15357.7 6648.54 12849.5 5414.25 10357.3 20538.9 5240.42 10040.1 15298.4 10581.8 6100.53 5406.25 6481.68
internal_count=3603 1073 2530 644 429 1511 1282 1232 309 208 146 120 1019 223 498 408 101 949 782 229 796 138 111 283 80 52 604 70 98 559 363 148 96 187 187 141 88 40 515 215 167 67 44 139 48 46 94 49 44 92 49 48 50 43 71 192 48 90 144 99 45 47 49
cat_boundaries=0 1 2
cat_threshold=48 112
is_linear=0
shrinkage=0.102


Tree=13
num_leaves=63
num_cat=13
split_feature=0 0 0 0 0 1 1 1 2 1 2 1 1 0 0 1 7 1 1 0 1 1 0 1 1 0 1 1 1 1 1 0 1 1 1 1 1 1 1 6 1 1 1 1 1 1 1 7 7 6 1 1 1 7 6 1 6 1 6 7 7 6
split_gain=47865.1 7339.21 1660.59 1655.81 784.532 611.345 405.336 507.95 401.231 363.676 324.307 269.313 279.952 241.339 170.867 117.613 115.161 111.467 218.101 108.138 103.428 339.004 94.8447 88.6517 78.3127 73.4317 56.977 56.6245 51.3629 50.0422 49.9461 46.7746 44.5615 73.4365 38.8986 37.2775 28.4217 27.4027 22.1185 71.7062 47.9766 18.8127 17.9765 15.3556 15.1661 14.8431 35.392 16.8601 14.2687 15.8211 8.64645 13.297 8.62411 5.926 4.6695 4.06519 2.61487 2.55183 2.0004 1.69784 1.52844 0.998787
threshold=0 1 2 3 4 233.50000000000003 271.50000000000006 233.50000000000003 5 270.50000000000006 6 233.50000000000003 271.50000000000006 7 8 275.50000000000006 0.091567568236157262 251.50000000000003 260.50000000000006 9 258.50000000000006 251.50000000000003 10 228.50000000000003 249.50000000000003 11 225.50000000000003 251.50000000000003 244.50000000000003 234.50000000000003 271.50000000000006 12 236.50000000000003 251.50000000000003 251.50000000000003 249.50000000000003 277.50000000000006 228.50000000000003 249.50000000000003 0.0010108611501717293 240.50000000000003 251.50000000000003 241.50000000000003 271.50000000000006 227.50000000000003 251.50000000000003 256.50000000000006 0.19797081230566346 0.15777802610391869 0.00090059021248227304 271.50000000000006 241.50000000000003 251.50000000000003 0.094756573247695458 0.00058431661474314493 248.50000000000003 0.0034023707472788925 274.50000000000006 0.0006356968376467658 0.15433141287648844 0.19475943092164283 0.00089601043200250748
decision_type=1 1 1 1 1 2 2 2 1 2 1 2 2 1 1 2 2 2 2 1 2 2 1 2 2 1 2 2 2 2 2 1 2 2 2 2 2 2 2 2 2 2 2 2 2 2 2 2 2 2 2 2 2 2 2 2 2 2 2 2 2 2
left_child=2 4 5 10 25 -1 7 23 16 17 14 26 13 27 38 35 24 28 -19 30 21 -10 29 -4 -9 50 -5 -13 -7 54 41 -15 -21 -34 42 -16 -8 -24 40 -40 -3 -12 -31 -36 -28 47 -47 -39 49 -14 51 60 -53 -46 -6 -18 58 -32 59 -27 -2 -60
right_child=1 3 6 11 22 9 36 8 20 -11 19 12 48 31 15 -17 55 18 -20 32 -22 -23 37 -25 -26 56 44 -29 -30 34 57 -33 33 -35 43 -37 -38 45 39 -41 -42 -43 -44 -45 53 46 -48 -49 -50 -51 -52 52 -54 -55 -56 -57 -58 -59 61 -61 -62 -63
leaf_value=0.025691059260525596 -0.042462611149882118 0.0075693208055310169 0.003684302533649925 -0.042253531555067912 -0.03881354685959388 0.046614058418131543 0.007717319012260514 0.045530112017505543 0.02688287140859949 0.032386261012369202 -0.0065185344478356794 -0.0021710593885191395 -0.026003982237377141 -0.014689558117968378 0.0047664235717872466 -0.01760553727965513 0.03083607910228349 0.034837182018356047 0.04887470687744485 -0.010273401958673241 0.029685949088635637 0.0017474735629307268 -0.043499900110909713 0.018109675944960723 0.03544537921114177 -0.047515226454763609 -0.031091201019129964 -0.01065472024267235 0.053048858999257299 -0.02628921816801174 -0.020334022003200867 -0.019940349596534207 0.0069519558137809039 -0.0044044899036816279 -0.026845683805390774 -0.0023499541398484839 0.01556546371667897 -0.030032891661502924 0.014288362528158186 -0.0023427172206533023 0.022577875608382474 -0.011653147775476724 -0.018145551975415578 -0.032977718992253033 -0.027678714107914462 -0.043247349436740593 -0.033618663358390991 -0.037305584052708188 -0.031198670566823197 -0.018781786516552663 -0.045435359209059979 -0.035041566642945526 -0.040390833465494845 -0.023329505618924842 -0.033073393466269148 0.027040540128461025 -0.050404683075287379 -0.016314775183471058 -0.046155431910951845 -0.049749434320423842 -0.045713709433834855 -0.047747683874360104
leaf_weight=24417.454895019531 5300.4794235229492 4571.611572265625 8354.4219207763672 2605.8179016113281 3158.2709197998047 31821.413330078125 11280.914108276367 15161.264465332031 17974.844528198242 25249.366271972656 17145.65625 15738.572677612305 17321.120048522949 38315.764297485352 16063.334899902344 3819.8110198974609 5670.8613128662109 21367.244812011719 25088.878112792969 6364.6589813232422 15137.235153198242 8104.5532379150391 3302.3992538452148 9469.1515502929688 17188.293670654297 9091.1310577392578 5139.2399368286133 17100.443161010742 22091.142883300781 4724.9739532470703 3443.6046447753906 33695.733253479004 8682.6415405273438 18640.218124389648 14154.493156433105 14624.856231689453 8418.9031829833984 15194.771644592285 7230.5426788330078 4293.6548309326172 4328.3043975830078 13209.620758056641 7221.9598159790039 6247.6074142456055 4908.6390838623047 4925.4955444335938 21705.118682861328 4352.8840026855469 4260.5237121582031 3938.3883666992188 4488.6049499511719 5106.8170166015625 9220.4778137207031 11123.341125488281 3229.4406509399414 7134.7394561767578 5182.2471923828125 3643.5440368652344 10493.166946411133 9445.2023620605469 3130.4423599243164 15052.283393859863
leaf_count=27 46 23 25 19 25 29 33 26 50 26 99 90 125 254 90 25 20 21 24 37 44 25 29 30 33 89 37 101 19 35 22 241 46 107 105 82 25 127 36 22 20 78 53 49 34 42 185 38 33 27 40 45 81 78 25 26 52 23 97 92 29 145
internal_value=0 -0.0209533 0.0332415 -0.0109078 -0.038039 0.040462 0.0244946 0.0270337 0.0302693 0.043336 -0.00223626 -0.0179984 -0.0161778 -0.0138448 0.00364982 -0.000725793 0.0369201 0.04609 0.0424194 -0.00678261 0.022967 0.0190738 -0.0314679 0.0113512 0.0401735 -0.0456097 -0.027986 -0.00658851 0.0492518 -0.0276398 -0.0105556 -0.0171497 -0.00258553 -0.000793592 -0.0260116 0.00137319 0.0110741 -0.0344574 0.0110422 0.00808713 0.0148747 -0.0087548 -0.021371 -0.0287262 -0.0262273 -0.033817 -0.0354017 -0.0316552 -0.0257611 -0.0246687 -0.041227 -0.0404126 -0.0384881 -0.0246646 -0.0359203 0.0287257 -0.0480237 -0.0182756 -0.0477534 -0.0486567 -0.0436764 -0.0470958
internal_weight=0 444938 273931 280210 164728 150036 123895 104195 86371.8 125618 126062 154148 130371 104851 54932.1 34508 45155.2 100369 46456.1 71129.9 41216.6 26079.4 88217.4 17823.6 32349.6 76510.9 23777 32839 53912.6 38736.7 37442.4 72011.5 33687.5 27322.9 32349 30688.2 19699.8 49480.7 20424.1 11524.2 8899.92 30355.3 11946.9 20402.1 21171.2 46178.3 26630.6 19547.7 25520 21259.5 27246.8 22758.2 14327.3 16032 6387.71 12805.6 49264 7087.15 44081.8 18536.3 8430.92 25545.5
internal_count=3661 3178 483 1749 1429 146 337 279 224 119 710 1039 871 686 298 197 105 93 45 412 119 75 713 55 59 716 168 191 48 292 222 495 190 153 242 172 58 421 101 58 43 177 88 154 149 392 227 165 185 152 241 201 126 112 50 46 475 45 423 181 75 242
cat_boundaries=0 3 6 9 12 14 15 16 19 21 24 27 29 32
cat_threshold=2097408 164194 2052 1264006733 2380292616 1152 0 96 2048 67160224 839647365 1 1263603712 165675528 112 112 16 1115136 320 32 268959873 34944 537657348 1 394245 0 1024 135266304 144703488 813694976 1073743888 34
is_linear=0
shrinkage=0.102


Tree=14
num_leaves=66
num_cat=3
split_feature=7 6 7 7 2 6 1 6 6 6 7 7 6 7 7 7 6 7 7 7 6 7 3 1 1 1 1 7 1 1 2 6 6 7 7 1 1 6 6 6 7 6 1 1 1 1 6 1 1 1 1 1 1 1 6 1 1 6 6 1 1 1 1 1 1
split_gain=20436.4 13445.1 4695.81 1694.38 1225.19 1216.86 849.277 730.268 782.2 555.269 457.418 470.687 414.174 335.289 329.854 234.854 331.336 214.556 197.112 365.283 164.921 245.362 163.555 141.606 149.705 130.081 120.393 119.327 118.772 113.168 108.406 99.9771 92.4095 84.3737 74.0005 68.6215 68.2807 54.0505 53.1313 50.1607 46.2288 45.8924 43.6527 91.9565 38.1583 32.9171 15.2744 10.0015 8.30882 8.30803 6.43082 5.81392 5.51925 5.37131 4.90834 4.53913 3.087 3.03412 5.08066 3.61941 2.02163 1.2868 0.914257 0.433852 0.189092
threshold=0.094756573247695458 0.00065573011405184727 0.15907164613412897 0.087956230408063399 0 0.00048856779676830148 231.50000000000003 0.00052890735395337996 0.0010108611501717293 0.0004401474176166439 0.079487051257151789 0.055534769268901607 0.00027885631114696064 0.21550778393405964 0.022633469658841384 0.11662545899391223 0.00082211744896183985 0.14214185405720017 0.17542703293779219 0.17079026106001655 0.00087069735305113805 0.079487051257151789 1 251.50000000000003 240.50000000000003 241.50000000000003 251.50000000000003 0.20810867257805368 247.50000000000003 251.50000000000003 2 0.00058995362248472386 0.00088764428800871436 0.041143820320868905 0.16568280170032548 256.50000000000006 249.50000000000003 0.0005692103190168519 0.00033981486970576641 0.00076842653354921642 0.20766038694826075 0.00035707011601170222 244.50000000000003 258.50000000000006 251.50000000000003 237.50000000000003 0.0011490529353356269 268.50000000000006 251.50000000000003 257.50000000000006 239.50000000000003 266.50000000000006 257.50000000000006 264.50000000000006 0.00018566381211200902 251.50000000000003 250.50000000000003 0.0034023707472788925 0.00096294518722591412 250.50000000000003 251.50000000000003 251.50000000000003 263.50000000000006 256.50000000000006 237.50000000000003
decision_type=2 2 2 2 1 2 2 2 2 2 2 2 2 2 2 2 2 2 2 2 2 2 1 2 2 2 2 2 2 2 1 2 2 2 2 2 2 2 2 2 2 2 2 2 2 2 2 2 2 2 2 2 2 2 2 2 2 2 2 2 2 2 2 2 2
left_child=1 3 5 12 6 17 -3 25 15 49 11 32 54 18 -14 26 -17 41 19 34 39 42 37 24 -10 -7 -9 31 -12 -27 45 48 -8 -32 46 -25 -13 -11 -19 -6 -33 47 -22 -44 -23 -16 -4 50 -20 -5 -2 -30 -21 -31 63 -36 -40 58 -15 64 -43 -29 -61 -1 -60
right_child=2 4 13 9 20 7 10 8 23 22 28 36 14 57 30 16 -18 38 27 52 21 44 -24 35 -26 29 -28 61 51 53 33 40 -34 -35 55 -37 -38 -39 56 -41 -42 60 43 -45 -46 -47 -48 -49 -50 -51 -52 -53 -54 -55 -56 -57 -58 -59 59 62 -62 -63 -64 -65 -66
leaf_value=-0.043096806693027838 -0.022126277670531651 0.012721800564252749 -0.031922242771514876 -0.026056707478400099 0.017277760083920051 -0.003920149872661767 0.026699175993535038 -0.0036467836479097231 1.1322427511723145e-05 0.011022663586495021 0.034506189147328829 0.05072743917816349 -0.048505441509891729 -0.050223496964703226 -0.030184750007571252 -0.028823575672087452 -0.013199988718755933 -0.049061580218048996 -0.019938787345451313 -0.0088062654956512394 0.028265796551360668 0.014966192999917501 0.024066121019766497 -0.01521465223671381 0.015452799579397701 0.028117453982468371 -0.012786944054978771 -0.01991625370178653 0.021701930912699372 0.012036022903155499 -8.3878820075617574e-05 -0.03738015547554735 0.035909997126648455 -0.016758587580192257 -0.020016352659611075 -0.0015786934191518451 0.043448774307730323 -0.0012232812447241493 -0.031790021531690922 0.0065439132949182566 -0.048077852045314493 -0.028603566052926702 0.016674455679516316 0.02637748579044108 0.0040953774594331459 -0.021678225308742614 -0.038910822779831794 -0.025320345760601926 -0.02779510267857405 -0.018363009143370239 -0.016689093036478669 0.017888099179657613 -0.0032380317613449655 0.0074805031949608291 -0.046671247567970565 -0.025705683674057039 -0.036789826867682257 -0.05051894644930207 -0.046678788758105348 -0.041719877593994377 -0.032897207087484288 -0.023209281886048233 -0.045180499588199148 -0.040359676667563897 -0.049313050381433771
